<?xml version="1.0"?>
<opencv_storage>
<cascade>
  <size>
    40 40</size>
  <stages>
    <_>
      <trees>
        <_>
          <_>
            <feature>
              <rects>
                <_>
                  8 15 28 14 -1.</_>
                <_>
                  15 15 14 14 2.</_></rects>
              <tilted>0</tilted></feature>
            <threshold>2.7202378958463669e-02</threshold>
            <left_val>-1.6511627906977025e-01</left_val>
            <right_val>7.3243243243243394e-01</right_val></_></_>
        <_>
          <_>
            <feature>
              <rects>
                <_>
                  0 0 38 14 -1.</_>
                <_>
                  0 7 38 7 2.</_></rects>
              <tilted>0</tilted></feature>
            <threshold>-9.5264077186584473e-02</threshold>
            <left_val>7.0599852518443940e-01</left_val>
            <right_val>-2.1466085365777465e-01</right_val></_></_>
        <_>
          <_>
            <feature>
              <rects>
                <_>
                  18 26 5 12 -1.</_>
                <_>
                  18 30 5 4 3.</_></rects>
              <tilted>0</tilted></feature>
            <threshold>-4.1056955233216286e-03</threshold>
            <left_val>5.2483448641802033e-01</left_val>
            <right_val>-2.8646657807747850e-01</right_val></_></_>
        <_>
          <_>
            <feature>
              <rects>
                <_>
                  3 1 36 39 -1.</_>
                <_>
                  15 14 12 13 9.</_></rects>
              <tilted>0</tilted></feature>
            <threshold>7.3180830478668213e-01</threshold>
            <left_val>-1.5952748774551043e-01</left_val>
            <right_val>8.5097254857623172e-01</right_val></_></_>
        <_>
          <_>
            <feature>
              <rects>
                <_>
                  1 7 39 28 -1.</_>
                <_>
                  14 7 13 28 3.</_></rects>
              <tilted>0</tilted></feature>
            <threshold>-1.2285839021205902e-01</threshold>
            <left_val>6.0000966410325951e-01</left_val>
            <right_val>-2.5199685110685577e-01</right_val></_></_>
        <_>
          <_>
            <feature>
              <rects>
                <_>
                  0 10 4 25 -1.</_>
                <_>
                  2 10 2 25 2.</_></rects>
              <tilted>0</tilted></feature>
            <threshold>-8.4854457527399063e-03</threshold>
            <left_val>6.8533974375614648e-01</left_val>
            <right_val>-1.4222832816586800e-01</right_val></_></_>
        <_>
          <_>
            <feature>
              <rects>
                <_>
                  0 7 4 23 -1.</_>
                <_>
                  2 7 2 23 2.</_></rects>
              <tilted>0</tilted></feature>
            <threshold>7.7830273658037186e-03</threshold>
            <left_val>-1.9267963741682345e-01</left_val>
            <right_val>7.3981707959587184e-01</right_val></_></_>
        <_>
          <_>
            <feature>
              <rects>
                <_>
                  1 1 22 26 -1.</_>
                <_>
                  1 1 11 13 2.</_>
                <_>
                  12 14 11 13 2.</_></rects>
              <tilted>0</tilted></feature>
            <threshold>4.7414705157279968e-02</threshold>
            <left_val>-1.9024641222297947e-01</left_val>
            <right_val>5.3725716962861680e-01</right_val></_></_>
        <_>
          <_>
            <feature>
              <rects>
                <_>
                  11 1 12 11 -1.</_>
                <_>
                  14 4 6 11 2.</_></rects>
              <tilted>1</tilted></feature>
            <threshold>2.9209138825535774e-02</threshold>
            <left_val>-1.9695833858643955e-01</left_val>
            <right_val>7.1075816246370960e-01</right_val></_></_>
        <_>
          <_>
            <feature>
              <rects>
                <_>
                  0 0 20 28 -1.</_>
                <_>
                  5 0 10 28 2.</_></rects>
              <tilted>0</tilted></feature>
            <threshold>-4.1548818349838257e-02</threshold>
            <left_val>6.2373550493804386e-01</left_val>
            <right_val>-1.6530440781084393e-01</right_val></_></_>
        <_>
          <_>
            <feature>
              <rects>
                <_>
                  23 14 3 4 -1.</_>
                <_>
                  24 14 1 4 3.</_></rects>
              <tilted>0</tilted></feature>
            <threshold>4.4786115176975727e-04</threshold>
            <left_val>1.8259186830334145e-01</left_val>
            <right_val>-6.5815049290819594e-01</right_val></_></_>
        <_>
          <_>
            <feature>
              <rects>
                <_>
                  7 28 22 12 -1.</_>
                <_>
                  7 31 22 6 2.</_></rects>
              <tilted>0</tilted></feature>
            <threshold>2.1197384223341942e-02</threshold>
            <left_val>-1.9531192082037674e-01</left_val>
            <right_val>5.9118217357799796e-01</right_val></_></_>
        <_>
          <_>
            <feature>
              <rects>
                <_>
                  32 6 7 12 -1.</_>
                <_>
                  28 10 7 4 3.</_></rects>
              <tilted>1</tilted></feature>
            <threshold>-2.7529863640666008e-02</threshold>
            <left_val>6.2765195177652044e-01</left_val>
            <right_val>-1.7581402055428219e-01</right_val></_></_>
        <_>
          <_>
            <feature>
              <rects>
                <_>
                  17 13 3 6 -1.</_>
                <_>
                  18 13 1 6 3.</_></rects>
              <tilted>0</tilted></feature>
            <threshold>-7.0446671452373266e-04</threshold>
            <left_val>-7.7501353045724819e-01</left_val>
            <right_val>1.6772500725194078e-01</right_val></_></_>
        <_>
          <_>
            <feature>
              <rects>
                <_>
                  34 12 6 14 -1.</_>
                <_>
                  36 12 2 14 3.</_></rects>
              <tilted>0</tilted></feature>
            <threshold>-1.0787635110318661e-03</threshold>
            <left_val>3.2996617899774122e-01</left_val>
            <right_val>-3.1749779226494240e-01</right_val></_></_></trees>
      <stage_threshold>-1.3957755565643311e+00</stage_threshold>
      <parent>-1</parent>
      <next>-1</next></_>
    <_>
      <trees>
        <_>
          <_>
            <feature>
              <rects>
                <_>
                  25 18 8 9 -1.</_>
                <_>
                  29 18 4 9 2.</_></rects>
              <tilted>0</tilted></feature>
            <threshold>-2.3885397240519524e-03</threshold>
            <left_val>5.9955506117908985e-01</left_val>
            <right_val>-1.9828815977175779e-01</right_val></_></_>
        <_>
          <_>
            <feature>
              <rects>
                <_>
                  7 2 16 7 -1.</_>
                <_>
                  11 6 8 7 2.</_></rects>
              <tilted>1</tilted></feature>
            <threshold>-4.2159572243690491e-02</threshold>
            <left_val>5.8601581527018809e-01</left_val>
            <right_val>-1.7400300415318384e-01</right_val></_></_>
        <_>
          <_>
            <feature>
              <rects>
                <_>
                  17 25 8 12 -1.</_>
                <_>
                  17 29 8 4 3.</_></rects>
              <tilted>0</tilted></feature>
            <threshold>-7.7475858852267265e-03</threshold>
            <left_val>3.9616606320225728e-01</left_val>
            <right_val>-2.4345686041204456e-01</right_val></_></_>
        <_>
          <_>
            <feature>
              <rects>
                <_>
                  14 16 2 3 -1.</_>
                <_>
                  13 17 2 1 3.</_></rects>
              <tilted>1</tilted></feature>
            <threshold>-6.0711009427905083e-04</threshold>
            <left_val>-6.4806703865531690e-01</left_val>
            <right_val>1.3352215862494957e-01</right_val></_></_>
        <_>
          <_>
            <feature>
              <rects>
                <_>
                  0 9 6 26 -1.</_>
                <_>
                  3 9 3 26 2.</_></rects>
              <tilted>0</tilted></feature>
            <threshold>2.1270539611577988e-02</threshold>
            <left_val>-1.2706294155964898e-01</left_val>
            <right_val>6.8724439802355830e-01</right_val></_></_>
        <_>
          <_>
            <feature>
              <rects>
                <_>
                  0 12 2 19 -1.</_>
                <_>
                  1 12 1 19 2.</_></rects>
              <tilted>0</tilted></feature>
            <threshold>-1.4950765762478113e-03</threshold>
            <left_val>5.0052190048903633e-01</left_val>
            <right_val>-2.3735961242063433e-01</right_val></_></_>
        <_>
          <_>
            <feature>
              <rects>
                <_>
                  10 11 14 10 -1.</_>
                <_>
                  10 11 7 5 2.</_>
                <_>
                  17 16 7 5 2.</_></rects>
              <tilted>0</tilted></feature>
            <threshold>9.9616926163434982e-03</threshold>
            <left_val>-1.9807589041742968e-01</left_val>
            <right_val>4.4169522485360280e-01</right_val></_></_>
        <_>
          <_>
            <feature>
              <rects>
                <_>
                  2 21 7 3 -1.</_>
                <_>
                  2 22 7 1 3.</_></rects>
              <tilted>0</tilted></feature>
            <threshold>-7.6523917960003018e-04</threshold>
            <left_val>-6.3527857556723488e-01</left_val>
            <right_val>1.5201689447055527e-01</right_val></_></_>
        <_>
          <_>
            <feature>
              <rects>
                <_>
                  0 19 16 3 -1.</_>
                <_>
                  0 20 16 1 3.</_></rects>
              <tilted>0</tilted></feature>
            <threshold>-1.7535396618768573e-03</threshold>
            <left_val>-7.5316659999130686e-01</left_val>
            <right_val>1.1814575471485678e-01</right_val></_></_>
        <_>
          <_>
            <feature>
              <rects>
                <_>
                  20 0 18 16 -1.</_>
                <_>
                  20 4 18 8 2.</_></rects>
              <tilted>0</tilted></feature>
            <threshold>-2.2678866982460022e-02</threshold>
            <left_val>4.3177857360346783e-01</left_val>
            <right_val>-2.2069317714884404e-01</right_val></_></_>
        <_>
          <_>
            <feature>
              <rects>
                <_>
                  20 29 6 10 -1.</_>
                <_>
                  20 34 6 5 2.</_></rects>
              <tilted>0</tilted></feature>
            <threshold>-1.7802316695451736e-02</threshold>
            <left_val>6.9545695587495115e-01</left_val>
            <right_val>-1.3083459312831425e-01</right_val></_></_>
        <_>
          <_>
            <feature>
              <rects>
                <_>
                  23 28 3 6 -1.</_>
                <_>
                  24 28 1 6 3.</_></rects>
              <tilted>0</tilted></feature>
            <threshold>6.8926368840038776e-04</threshold>
            <left_val>1.5214223506376637e-01</left_val>
            <right_val>-6.6495742105047972e-01</right_val></_></_>
        <_>
          <_>
            <feature>
              <rects>
                <_>
                  18 5 7 8 -1.</_>
                <_>
                  18 7 7 4 2.</_></rects>
              <tilted>0</tilted></feature>
            <threshold>3.8998350501060486e-03</threshold>
            <left_val>-1.6237609104578243e-01</left_val>
            <right_val>5.3302521323486785e-01</right_val></_></_>
        <_>
          <_>
            <feature>
              <rects>
                <_>
                  21 12 4 18 -1.</_>
                <_>
                  21 21 4 9 2.</_></rects>
              <tilted>0</tilted></feature>
            <threshold>-1.0694097727537155e-02</threshold>
            <left_val>-5.2154461016190634e-01</left_val>
            <right_val>1.6570984333482233e-01</right_val></_></_>
        <_>
          <_>
            <feature>
              <rects>
                <_>
                  0 7 40 13 -1.</_>
                <_>
                  10 7 20 13 2.</_></rects>
              <tilted>0</tilted></feature>
            <threshold>1.1857889592647552e-01</threshold>
            <left_val>-1.5548822324416633e-01</left_val>
            <right_val>7.1145070942934141e-01</right_val></_></_>
        <_>
          <_>
            <feature>
              <rects>
                <_>
                  0 2 12 33 -1.</_>
                <_>
                  6 2 6 33 2.</_></rects>
              <tilted>0</tilted></feature>
            <threshold>-6.7750677466392517e-02</threshold>
            <left_val>5.8578974031305797e-01</left_val>
            <right_val>-1.3320995364175048e-01</right_val></_></_>
        <_>
          <_>
            <feature>
              <rects>
                <_>
                  0 17 16 3 -1.</_>
                <_>
                  4 17 8 3 2.</_></rects>
              <tilted>0</tilted></feature>
            <threshold>8.1818606704473495e-03</threshold>
            <left_val>-1.2551408543549550e-01</left_val>
            <right_val>6.6649114368921536e-01</right_val></_></_>
        <_>
          <_>
            <feature>
              <rects>
                <_>
                  34 0 1 40 -1.</_>
                <_>
                  34 10 1 20 2.</_></rects>
              <tilted>0</tilted></feature>
            <threshold>-1.3236878439784050e-02</threshold>
            <left_val>6.8330928446825290e-01</left_val>
            <right_val>-1.0499873410031856e-01</right_val></_></_>
        <_>
          <_>
            <feature>
              <rects>
                <_>
                  11 12 3 2 -1.</_>
                <_>
                  12 12 1 2 3.</_></rects>
              <tilted>0</tilted></feature>
            <threshold>-5.6241732090711594e-04</threshold>
            <left_val>-8.6718345086247606e-01</left_val>
            <right_val>1.0808494871320191e-01</right_val></_></_>
        <_>
          <_>
            <feature>
              <rects>
                <_>
                  10 19 11 8 -1.</_>
                <_>
                  8 21 11 4 2.</_></rects>
              <tilted>1</tilted></feature>
            <threshold>-5.7962373830378056e-03</threshold>
            <left_val>3.1296944991957221e-01</left_val>
            <right_val>-2.5361178785395616e-01</right_val></_></_>
        <_>
          <_>
            <feature>
              <rects>
                <_>
                  34 9 6 26 -1.</_>
                <_>
                  37 9 3 26 2.</_></rects>
              <tilted>0</tilted></feature>
            <threshold>-1.3261628337204456e-02</threshold>
            <left_val>5.5581572478331143e-01</left_val>
            <right_val>-1.4100432840550439e-01</right_val></_></_>
        <_>
          <_>
            <feature>
              <rects>
                <_>
                  8 17 1 3 -1.</_>
                <_>
                  8 18 1 1 3.</_></rects>
              <tilted>0</tilted></feature>
            <threshold>-8.9625958935357630e-05</threshold>
            <left_val>-4.6863379754676115e-01</left_val>
            <right_val>1.8189091480847042e-01</right_val></_></_></trees>
      <stage_threshold>-1.0768173933029175e+00</stage_threshold>
      <parent>0</parent>
      <next>-1</next></_>
    <_>
      <trees>
        <_>
          <_>
            <feature>
              <rects>
                <_>
                  11 14 21 6 -1.</_>
                <_>
                  18 16 7 2 9.</_></rects>
              <tilted>0</tilted></feature>
            <threshold>6.9917161017656326e-03</threshold>
            <left_val>-1.2827586206896760e-01</left_val>
            <right_val>5.6342857142857361e-01</right_val></_></_>
        <_>
          <_>
            <feature>
              <rects>
                <_>
                  0 0 37 14 -1.</_>
                <_>
                  0 7 37 7 2.</_></rects>
              <tilted>0</tilted></feature>
            <threshold>-1.3241645693778992e-01</threshold>
            <left_val>6.0841532664066300e-01</left_val>
            <right_val>-1.6194423645485120e-01</right_val></_></_>
        <_>
          <_>
            <feature>
              <rects>
                <_>
                  9 12 16 10 -1.</_>
                <_>
                  9 12 8 5 2.</_>
                <_>
                  17 17 8 5 2.</_></rects>
              <tilted>0</tilted></feature>
            <threshold>7.8357886523008347e-03</threshold>
            <left_val>-2.2241491608446295e-01</left_val>
            <right_val>4.1071906847768286e-01</right_val></_></_>
        <_>
          <_>
            <feature>
              <rects>
                <_>
                  14 3 13 14 -1.</_>
                <_>
                  14 10 13 7 2.</_></rects>
              <tilted>0</tilted></feature>
            <threshold>1.8604706972837448e-02</threshold>
            <left_val>-2.3729099230312159e-01</left_val>
            <right_val>4.4334342687309697e-01</right_val></_></_>
        <_>
          <_>
            <feature>
              <rects>
                <_>
                  30 29 10 1 -1.</_>
                <_>
                  30 29 5 1 2.</_></rects>
              <tilted>1</tilted></feature>
            <threshold>-3.7600069772452116e-03</threshold>
            <left_val>5.3836843749459407e-01</left_val>
            <right_val>-1.7807918923100960e-01</right_val></_></_>
        <_>
          <_>
            <feature>
              <rects>
                <_>
                  21 12 10 8 -1.</_>
                <_>
                  21 12 5 8 2.</_></rects>
              <tilted>1</tilted></feature>
            <threshold>1.9051786512136459e-02</threshold>
            <left_val>1.1993992762162937e-01</left_val>
            <right_val>-6.9099544419712133e-01</right_val></_></_>
        <_>
          <_>
            <feature>
              <rects>
                <_>
                  3 16 36 4 -1.</_>
                <_>
                  21 16 18 4 2.</_></rects>
              <tilted>0</tilted></feature>
            <threshold>3.9412643760442734e-02</threshold>
            <left_val>9.6302339387763378e-02</left_val>
            <right_val>-7.8992441692842741e-01</right_val></_></_>
        <_>
          <_>
            <feature>
              <rects>
                <_>
                  5 18 1 3 -1.</_>
                <_>
                  5 19 1 1 3.</_></rects>
              <tilted>0</tilted></feature>
            <threshold>9.5150804554577917e-05</threshold>
            <left_val>1.4320472980646842e-01</left_val>
            <right_val>-5.3453763192852477e-01</right_val></_></_>
        <_>
          <_>
            <feature>
              <rects>
                <_>
                  3 2 36 1 -1.</_>
                <_>
                  12 11 18 1 2.</_></rects>
              <tilted>1</tilted></feature>
            <threshold>2.4240158498287201e-02</threshold>
            <left_val>-1.6785284038864803e-01</left_val>
            <right_val>5.4024318093070944e-01</right_val></_></_>
        <_>
          <_>
            <feature>
              <rects>
                <_>
                  10 0 15 10 -1.</_>
                <_>
                  15 5 5 10 3.</_></rects>
              <tilted>1</tilted></feature>
            <threshold>-9.9971130490303040e-02</threshold>
            <left_val>7.7315926165862736e-01</left_val>
            <right_val>-7.0731083567248970e-02</right_val></_></_>
        <_>
          <_>
            <feature>
              <rects>
                <_>
                  11 0 15 15 -1.</_>
                <_>
                  11 5 15 5 3.</_></rects>
              <tilted>0</tilted></feature>
            <threshold>3.9896219968795776e-02</threshold>
            <left_val>-1.2706880432971565e-01</left_val>
            <right_val>6.6189806765208348e-01</right_val></_></_>
        <_>
          <_>
            <feature>
              <rects>
                <_>
                  12 24 6 10 -1.</_>
                <_>
                  12 24 3 5 2.</_>
                <_>
                  15 29 3 5 2.</_></rects>
              <tilted>0</tilted></feature>
            <threshold>-1.1882191756740212e-03</threshold>
            <left_val>3.3548240296591114e-01</left_val>
            <right_val>-2.3088636439434912e-01</right_val></_></_>
        <_>
          <_>
            <feature>
              <rects>
                <_>
                  6 17 3 3 -1.</_>
                <_>
                  6 18 3 1 3.</_></rects>
              <tilted>0</tilted></feature>
            <threshold>3.1678678351454437e-04</threshold>
            <left_val>1.5032202427912500e-01</left_val>
            <right_val>-5.3692344469406728e-01</right_val></_></_>
        <_>
          <_>
            <feature>
              <rects>
                <_>
                  6 0 23 8 -1.</_>
                <_>
                  6 4 23 4 2.</_></rects>
              <tilted>0</tilted></feature>
            <threshold>-2.1079510450363159e-02</threshold>
            <left_val>3.6173425046369995e-01</left_val>
            <right_val>-2.1474380673401755e-01</right_val></_></_>
        <_>
          <_>
            <feature>
              <rects>
                <_>
                  0 14 4 22 -1.</_>
                <_>
                  0 14 2 11 2.</_>
                <_>
                  2 25 2 11 2.</_></rects>
              <tilted>0</tilted></feature>
            <threshold>-4.5684566721320152e-03</threshold>
            <left_val>4.5482739771726455e-01</left_val>
            <right_val>-1.6467694659888102e-01</right_val></_></_>
        <_>
          <_>
            <feature>
              <rects>
                <_>
                  23 0 6 14 -1.</_>
                <_>
                  23 7 6 7 2.</_></rects>
              <tilted>0</tilted></feature>
            <threshold>1.1287409812211990e-02</threshold>
            <left_val>-1.4666777286668622e-01</left_val>
            <right_val>4.8087256034880482e-01</right_val></_></_>
        <_>
          <_>
            <feature>
              <rects>
                <_>
                  31 25 4 8 -1.</_>
                <_>
                  31 25 2 8 2.</_></rects>
              <tilted>1</tilted></feature>
            <threshold>-8.2023330032825470e-03</threshold>
            <left_val>5.7979204468431234e-01</left_val>
            <right_val>-1.2505830084183084e-01</right_val></_></_>
        <_>
          <_>
            <feature>
              <rects>
                <_>
                  0 5 12 19 -1.</_>
                <_>
                  3 5 6 19 2.</_></rects>
              <tilted>0</tilted></feature>
            <threshold>-1.0455199517309666e-02</threshold>
            <left_val>4.2858538700523763e-01</left_val>
            <right_val>-1.6785096765128082e-01</right_val></_></_>
        <_>
          <_>
            <feature>
              <rects>
                <_>
                  29 12 3 3 -1.</_>
                <_>
                  30 13 1 3 3.</_></rects>
              <tilted>1</tilted></feature>
            <threshold>-7.0847722236067057e-04</threshold>
            <left_val>-5.7961785079307138e-01</left_val>
            <right_val>1.3156303631109476e-01</right_val></_></_>
        <_>
          <_>
            <feature>
              <rects>
                <_>
                  20 19 6 4 -1.</_>
                <_>
                  20 19 3 2 2.</_>
                <_>
                  23 21 3 2 2.</_></rects>
              <tilted>0</tilted></feature>
            <threshold>7.4862374458462000e-04</threshold>
            <left_val>-2.0515369968045008e-01</left_val>
            <right_val>4.1808647436569851e-01</right_val></_></_>
        <_>
          <_>
            <feature>
              <rects>
                <_>
                  27 18 8 3 -1.</_>
                <_>
                  27 19 8 1 3.</_></rects>
              <tilted>0</tilted></feature>
            <threshold>-5.8266799896955490e-04</threshold>
            <left_val>-4.7934589276924722e-01</left_val>
            <right_val>1.6839587579100154e-01</right_val></_></_>
        <_>
          <_>
            <feature>
              <rects>
                <_>
                  21 27 2 12 -1.</_>
                <_>
                  21 31 2 4 3.</_></rects>
              <tilted>0</tilted></feature>
            <threshold>-2.0296489819884300e-03</threshold>
            <left_val>3.1742250724499632e-01</left_val>
            <right_val>-2.4445934134845831e-01</right_val></_></_></trees>
      <stage_threshold>-9.4282180070877075e-01</stage_threshold>
      <parent>1</parent>
      <next>-1</next></_>
    <_>
      <trees>
        <_>
          <_>
            <feature>
              <rects>
                <_>
                  0 8 20 28 -1.</_>
                <_>
                  5 8 10 28 2.</_></rects>
              <tilted>0</tilted></feature>
            <threshold>-3.4689761698246002e-02</threshold>
            <left_val>6.2973352033660812e-01</left_val>
            <right_val>-5.5242390078918617e-02</right_val></_></_>
        <_>
          <_>
            <feature>
              <rects>
                <_>
                  36 1 4 38 -1.</_>
                <_>
                  38 1 2 38 2.</_></rects>
              <tilted>0</tilted></feature>
            <threshold>1.3101609423756599e-02</threshold>
            <left_val>-1.1256645651960800e-01</left_val>
            <right_val>6.6112125524015863e-01</right_val></_></_>
        <_>
          <_>
            <feature>
              <rects>
                <_>
                  20 19 20 12 -1.</_>
                <_>
                  30 19 10 12 2.</_></rects>
              <tilted>0</tilted></feature>
            <threshold>-4.6485379338264465e-02</threshold>
            <left_val>4.7458041392258610e-01</left_val>
            <right_val>-1.7681843916071313e-01</right_val></_></_>
        <_>
          <_>
            <feature>
              <rects>
                <_>
                  5 9 32 26 -1.</_>
                <_>
                  13 9 16 26 2.</_></rects>
              <tilted>0</tilted></feature>
            <threshold>-8.6061730980873108e-02</threshold>
            <left_val>5.9133000845616523e-01</left_val>
            <right_val>-1.3999309835320584e-01</right_val></_></_>
        <_>
          <_>
            <feature>
              <rects>
                <_>
                  14 9 14 25 -1.</_>
                <_>
                  21 9 7 25 2.</_></rects>
              <tilted>0</tilted></feature>
            <threshold>-2.8699766844511032e-02</threshold>
            <left_val>-6.1357123162464655e-01</left_val>
            <right_val>1.2489774474800371e-01</right_val></_></_>
        <_>
          <_>
            <feature>
              <rects>
                <_>
                  21 12 14 8 -1.</_>
                <_>
                  21 12 7 4 2.</_>
                <_>
                  28 16 7 4 2.</_></rects>
              <tilted>0</tilted></feature>
            <threshold>-4.2868182063102722e-03</threshold>
            <left_val>3.4883735745769162e-01</left_val>
            <right_val>-2.4986306661479438e-01</right_val></_></_>
        <_>
          <_>
            <feature>
              <rects>
                <_>
                  16 14 16 1 -1.</_>
                <_>
                  16 14 8 1 2.</_></rects>
              <tilted>1</tilted></feature>
            <threshold>-3.7029613740742207e-03</threshold>
            <left_val>-5.4768845970168578e-01</left_val>
            <right_val>1.4182922991542446e-01</right_val></_></_>
        <_>
          <_>
            <feature>
              <rects>
                <_>
                  15 6 3 16 -1.</_>
                <_>
                  16 6 1 16 3.</_></rects>
              <tilted>0</tilted></feature>
            <threshold>1.7428209539502859e-03</threshold>
            <left_val>8.1533993479494263e-02</left_val>
            <right_val>-8.3175514394062222e-01</right_val></_></_>
        <_>
          <_>
            <feature>
              <rects>
                <_>
                  0 9 6 20 -1.</_>
                <_>
                  3 9 3 20 2.</_></rects>
              <tilted>0</tilted></feature>
            <threshold>6.6898679360747337e-03</threshold>
            <left_val>-1.9593651067626686e-01</left_val>
            <right_val>3.8212660901718726e-01</right_val></_></_>
        <_>
          <_>
            <feature>
              <rects>
                <_>
                  0 12 12 26 -1.</_>
                <_>
                  3 12 6 26 2.</_></rects>
              <tilted>0</tilted></feature>
            <threshold>-6.9184303283691406e-03</threshold>
            <left_val>3.5236701913125051e-01</left_val>
            <right_val>-2.5446841447212787e-01</right_val></_></_>
        <_>
          <_>
            <feature>
              <rects>
                <_>
                  22 11 10 10 -1.</_>
                <_>
                  22 11 10 5 2.</_></rects>
              <tilted>1</tilted></feature>
            <threshold>1.1724916286766529e-02</threshold>
            <left_val>1.6168458391205331e-01</left_val>
            <right_val>-4.7853599467150176e-01</right_val></_></_>
        <_>
          <_>
            <feature>
              <rects>
                <_>
                  27 9 8 6 -1.</_>
                <_>
                  25 11 8 2 3.</_></rects>
              <tilted>1</tilted></feature>
            <threshold>9.1792084276676178e-03</threshold>
            <left_val>-1.2072107162840064e-01</left_val>
            <right_val>6.2773437483702810e-01</right_val></_></_>
        <_>
          <_>
            <feature>
              <rects>
                <_>
                  8 21 9 4 -1.</_>
                <_>
                  11 21 3 4 3.</_></rects>
              <tilted>0</tilted></feature>
            <threshold>-8.5459672845900059e-04</threshold>
            <left_val>3.0478148065222521e-01</left_val>
            <right_val>-2.2624104343074000e-01</right_val></_></_>
        <_>
          <_>
            <feature>
              <rects>
                <_>
                  2 18 4 3 -1.</_>
                <_>
                  2 19 4 1 3.</_></rects>
              <tilted>0</tilted></feature>
            <threshold>3.3214391442015767e-04</threshold>
            <left_val>1.5685990078427134e-01</left_val>
            <right_val>-5.1563464075269383e-01</right_val></_></_>
        <_>
          <_>
            <feature>
              <rects>
                <_>
                  4 18 11 3 -1.</_>
                <_>
                  4 19 11 1 3.</_></rects>
              <tilted>0</tilted></feature>
            <threshold>-1.2008007615804672e-03</threshold>
            <left_val>-6.5292396635349848e-01</left_val>
            <right_val>8.2990558505321818e-02</right_val></_></_>
        <_>
          <_>
            <feature>
              <rects>
                <_>
                  18 19 1 8 -1.</_>
                <_>
                  18 21 1 4 2.</_></rects>
              <tilted>0</tilted></feature>
            <threshold>-5.6008051615208387e-05</threshold>
            <left_val>2.6992749622219947e-01</left_val>
            <right_val>-2.5513444651184325e-01</right_val></_></_>
        <_>
          <_>
            <feature>
              <rects>
                <_>
                  12 10 1 3 -1.</_>
                <_>
                  11 11 1 1 3.</_></rects>
              <tilted>1</tilted></feature>
            <threshold>3.0138436704874039e-04</threshold>
            <left_val>1.3174359434774763e-01</left_val>
            <right_val>-5.3948316502870430e-01</right_val></_></_>
        <_>
          <_>
            <feature>
              <rects>
                <_>
                  24 22 8 16 -1.</_>
                <_>
                  24 22 4 8 2.</_>
                <_>
                  28 30 4 8 2.</_></rects>
              <tilted>0</tilted></feature>
            <threshold>8.9174043387174606e-03</threshold>
            <left_val>-1.7616600448512537e-01</left_val>
            <right_val>4.1230438851116324e-01</right_val></_></_>
        <_>
          <_>
            <feature>
              <rects>
                <_>
                  21 15 9 6 -1.</_>
                <_>
                  21 15 9 3 2.</_></rects>
              <tilted>1</tilted></feature>
            <threshold>-5.8710617013275623e-03</threshold>
            <left_val>-5.6841155672558841e-01</left_val>
            <right_val>1.5219290949147424e-01</right_val></_></_>
        <_>
          <_>
            <feature>
              <rects>
                <_>
                  29 21 10 18 -1.</_>
                <_>
                  29 21 5 9 2.</_>
                <_>
                  34 30 5 9 2.</_></rects>
              <tilted>0</tilted></feature>
            <threshold>1.6849236562848091e-02</threshold>
            <left_val>-1.3921058159502772e-01</left_val>
            <right_val>5.3540907314145147e-01</right_val></_></_>
        <_>
          <_>
            <feature>
              <rects>
                <_>
                  1 0 38 40 -1.</_>
                <_>
                  1 10 38 20 2.</_></rects>
              <tilted>0</tilted></feature>
            <threshold>-5.1758539676666260e-01</threshold>
            <left_val>8.0171626297112375e-01</left_val>
            <right_val>-7.7028068766254329e-02</right_val></_></_>
        <_>
          <_>
            <feature>
              <rects>
                <_>
                  15 21 16 1 -1.</_>
                <_>
                  15 21 8 1 2.</_></rects>
              <tilted>1</tilted></feature>
            <threshold>1.4428426511585712e-03</threshold>
            <left_val>-2.4722190334491045e-01</left_val>
            <right_val>3.0233081842693355e-01</right_val></_></_></trees>
      <stage_threshold>-1.0645644664764404e+00</stage_threshold>
      <parent>2</parent>
      <next>-1</next></_>
    <_>
      <trees>
        <_>
          <_>
            <feature>
              <rects>
                <_>
                  10 0 16 10 -1.</_>
                <_>
                  14 4 8 10 2.</_></rects>
              <tilted>1</tilted></feature>
            <threshold>-5.5533673614263535e-02</threshold>
            <left_val>6.4685314685314965e-01</left_val>
            <right_val>2.9182879377432427e-02</right_val></_></_>
        <_>
          <_>
            <feature>
              <rects>
                <_>
                  25 15 2 6 -1.</_>
                <_>
                  26 15 1 6 2.</_></rects>
              <tilted>0</tilted></feature>
            <threshold>-7.5719173764809966e-05</threshold>
            <left_val>3.3032408118210715e-01</left_val>
            <right_val>-2.5194459948725112e-01</right_val></_></_>
        <_>
          <_>
            <feature>
              <rects>
                <_>
                  6 14 3 3 -1.</_>
                <_>
                  6 15 3 1 3.</_></rects>
              <tilted>0</tilted></feature>
            <threshold>-5.3887721151113510e-04</threshold>
            <left_val>-6.3168834312740707e-01</left_val>
            <right_val>1.1691998066060325e-01</right_val></_></_>
        <_>
          <_>
            <feature>
              <rects>
                <_>
                  31 14 6 12 -1.</_>
                <_>
                  33 16 2 12 3.</_></rects>
              <tilted>1</tilted></feature>
            <threshold>2.6315890718251467e-03</threshold>
            <left_val>-2.5326553196671331e-01</left_val>
            <right_val>2.9953500334262934e-01</right_val></_></_>
        <_>
          <_>
            <feature>
              <rects>
                <_>
                  12 5 9 12 -1.</_>
                <_>
                  15 8 3 12 3.</_></rects>
              <tilted>1</tilted></feature>
            <threshold>2.2852117195725441e-02</threshold>
            <left_val>-1.5173238673927575e-01</left_val>
            <right_val>5.4424481972292882e-01</right_val></_></_>
        <_>
          <_>
            <feature>
              <rects>
                <_>
                  34 2 6 37 -1.</_>
                <_>
                  37 2 3 37 2.</_></rects>
              <tilted>0</tilted></feature>
            <threshold>1.3240119442343712e-02</threshold>
            <left_val>-1.5664228631811711e-01</left_val>
            <right_val>4.3644103615943675e-01</right_val></_></_>
        <_>
          <_>
            <feature>
              <rects>
                <_>
                  19 10 3 7 -1.</_>
                <_>
                  20 10 1 7 3.</_></rects>
              <tilted>0</tilted></feature>
            <threshold>-9.0711005032062531e-04</threshold>
            <left_val>-7.7762329052834744e-01</left_val>
            <right_val>7.5099214481840801e-02</right_val></_></_>
        <_>
          <_>
            <feature>
              <rects>
                <_>
                  0 16 40 14 -1.</_>
                <_>
                  10 16 20 14 2.</_></rects>
              <tilted>0</tilted></feature>
            <threshold>2.3437517881393433e-01</threshold>
            <left_val>-8.5485881334517858e-02</left_val>
            <right_val>8.3107918793755564e-01</right_val></_></_>
        <_>
          <_>
            <feature>
              <rects>
                <_>
                  15 10 12 9 -1.</_>
                <_>
                  15 13 12 3 3.</_></rects>
              <tilted>0</tilted></feature>
            <threshold>-4.5249694958329201e-03</threshold>
            <left_val>3.2852031660232700e-01</left_val>
            <right_val>-1.9744740295568336e-01</right_val></_></_>
        <_>
          <_>
            <feature>
              <rects>
                <_>
                  32 15 2 3 -1.</_>
                <_>
                  32 16 2 1 3.</_></rects>
              <tilted>0</tilted></feature>
            <threshold>-3.1761027639731765e-04</threshold>
            <left_val>-6.0670070125464626e-01</left_val>
            <right_val>1.1024858111031835e-01</right_val></_></_>
        <_>
          <_>
            <feature>
              <rects>
                <_>
                  32 13 8 19 -1.</_>
                <_>
                  36 13 4 19 2.</_></rects>
              <tilted>0</tilted></feature>
            <threshold>-2.3187948390841484e-02</threshold>
            <left_val>6.0172218308325864e-01</left_val>
            <right_val>-1.3740988241057497e-01</right_val></_></_>
        <_>
          <_>
            <feature>
              <rects>
                <_>
                  1 28 35 12 -1.</_>
                <_>
                  1 34 35 6 2.</_></rects>
              <tilted>0</tilted></feature>
            <threshold>6.1815731227397919e-02</threshold>
            <left_val>-1.4137061701522716e-01</left_val>
            <right_val>5.1217381047050148e-01</right_val></_></_>
        <_>
          <_>
            <feature>
              <rects>
                <_>
                  6 19 31 3 -1.</_>
                <_>
                  6 20 31 1 3.</_></rects>
              <tilted>0</tilted></feature>
            <threshold>-2.6556332595646381e-03</threshold>
            <left_val>-8.0680222200767382e-01</left_val>
            <right_val>9.5442504727479824e-02</right_val></_></_>
        <_>
          <_>
            <feature>
              <rects>
                <_>
                  0 7 4 24 -1.</_>
                <_>
                  0 7 2 12 2.</_>
                <_>
                  2 19 2 12 2.</_></rects>
              <tilted>0</tilted></feature>
            <threshold>9.1164279729127884e-03</threshold>
            <left_val>-1.2389692963003392e-01</left_val>
            <right_val>5.5805254187742703e-01</right_val></_></_>
        <_>
          <_>
            <feature>
              <rects>
                <_>
                  32 21 3 3 -1.</_>
                <_>
                  32 22 3 1 3.</_></rects>
              <tilted>0</tilted></feature>
            <threshold>-5.7395792100578547e-04</threshold>
            <left_val>-7.1444555517175845e-01</left_val>
            <right_val>9.0832788882253129e-02</right_val></_></_>
        <_>
          <_>
            <feature>
              <rects>
                <_>
                  7 26 12 8 -1.</_>
                <_>
                  7 26 6 4 2.</_>
                <_>
                  13 30 6 4 2.</_></rects>
              <tilted>0</tilted></feature>
            <threshold>-4.3019903823733330e-03</threshold>
            <left_val>3.4577081520474978e-01</left_val>
            <right_val>-1.8874455492579437e-01</right_val></_></_>
        <_>
          <_>
            <feature>
              <rects>
                <_>
                  23 6 3 30 -1.</_>
                <_>
                  24 6 1 30 3.</_></rects>
              <tilted>0</tilted></feature>
            <threshold>-3.4937146119773388e-03</threshold>
            <left_val>-8.3181750135499199e-01</left_val>
            <right_val>6.6921913402054556e-02</right_val></_></_>
        <_>
          <_>
            <feature>
              <rects>
                <_>
                  29 8 8 6 -1.</_>
                <_>
                  27 10 8 2 3.</_></rects>
              <tilted>1</tilted></feature>
            <threshold>7.9336529597640038e-03</threshold>
            <left_val>-1.2657085592219744e-01</left_val>
            <right_val>5.6246608587244207e-01</right_val></_></_>
        <_>
          <_>
            <feature>
              <rects>
                <_>
                  29 2 9 12 -1.</_>
                <_>
                  25 6 9 4 3.</_></rects>
              <tilted>1</tilted></feature>
            <threshold>-2.5208745151758194e-02</threshold>
            <left_val>3.9106823078146902e-01</left_val>
            <right_val>-1.6608366727097296e-01</right_val></_></_>
        <_>
          <_>
            <feature>
              <rects>
                <_>
                  15 15 12 12 -1.</_>
                <_>
                  21 15 6 12 2.</_></rects>
              <tilted>0</tilted></feature>
            <threshold>-1.8595412373542786e-02</threshold>
            <left_val>-8.4923322235088039e-01</left_val>
            <right_val>8.2555586028725716e-02</right_val></_></_>
        <_>
          <_>
            <feature>
              <rects>
                <_>
                  0 0 4 1 -1.</_>
                <_>
                  2 0 2 1 2.</_></rects>
              <tilted>0</tilted></feature>
            <threshold>2.3733919078949839e-04</threshold>
            <left_val>1.0677788941676680e-01</left_val>
            <right_val>-4.9986842770529089e-01</right_val></_></_>
        <_>
          <_>
            <feature>
              <rects>
                <_>
                  0 7 6 30 -1.</_>
                <_>
                  0 7 3 15 2.</_>
                <_>
                  3 22 3 15 2.</_></rects>
              <tilted>0</tilted></feature>
            <threshold>-1.6082251444458961e-02</threshold>
            <left_val>5.2314475656414350e-01</left_val>
            <right_val>-1.3188776207182226e-01</right_val></_></_>
        <_>
          <_>
            <feature>
              <rects>
                <_>
                  13 28 18 12 -1.</_>
                <_>
                  13 31 18 6 2.</_></rects>
              <tilted>0</tilted></feature>
            <threshold>2.4701599031686783e-02</threshold>
            <left_val>-1.0459067009351981e-01</left_val>
            <right_val>5.9969084920755011e-01</right_val></_></_>
        <_>
          <_>
            <feature>
              <rects>
                <_>
                  37 2 1 36 -1.</_>
                <_>
                  28 11 1 18 2.</_></rects>
              <tilted>1</tilted></feature>
            <threshold>3.2397337257862091e-02</threshold>
            <left_val>-7.4573734948006343e-02</left_val>
            <right_val>7.3685522340411835e-01</right_val></_></_>
        <_>
          <_>
            <feature>
              <rects>
                <_>
                  1 0 16 1 -1.</_>
                <_>
                  1 0 8 1 2.</_></rects>
              <tilted>1</tilted></feature>
            <threshold>1.1077629402279854e-02</threshold>
            <left_val>-1.7278799904445299e-01</left_val>
            <right_val>3.7062941596867227e-01</right_val></_></_>
        <_>
          <_>
            <feature>
              <rects>
                <_>
                  13 0 6 13 -1.</_>
                <_>
                  13 0 3 13 2.</_></rects>
              <tilted>1</tilted></feature>
            <threshold>-1.9465716555714607e-02</threshold>
            <left_val>5.4448871967069190e-01</left_val>
            <right_val>-1.1834468182772805e-01</right_val></_></_>
        <_>
          <_>
            <feature>
              <rects>
                <_>
                  26 15 4 4 -1.</_>
                <_>
                  25 16 4 2 2.</_></rects>
              <tilted>1</tilted></feature>
            <threshold>-1.2591253034770489e-03</threshold>
            <left_val>4.3887282474165928e-01</left_val>
            <right_val>-1.3794131595764714e-01</right_val></_></_></trees>
      <stage_threshold>-1.0214117765426636e+00</stage_threshold>
      <parent>3</parent>
      <next>-1</next></_>
    <_>
      <trees>
        <_>
          <_>
            <feature>
              <rects>
                <_>
                  2 8 20 12 -1.</_>
                <_>
                  2 8 10 6 2.</_>
                <_>
                  12 14 10 6 2.</_></rects>
              <tilted>0</tilted></feature>
            <threshold>6.9639682769775391e-03</threshold>
            <left_val>-7.8014184397164371e-02</left_val>
            <right_val>5.0837988826815883e-01</right_val></_></_>
        <_>
          <_>
            <feature>
              <rects>
                <_>
                  38 6 2 32 -1.</_>
                <_>
                  39 6 1 32 2.</_></rects>
              <tilted>0</tilted></feature>
            <threshold>2.3764283396303654e-03</threshold>
            <left_val>-1.4434336089758101e-01</left_val>
            <right_val>4.3899433849979574e-01</right_val></_></_>
        <_>
          <_>
            <feature>
              <rects>
                <_>
                  15 5 14 35 -1.</_>
                <_>
                  22 5 7 35 2.</_></rects>
              <tilted>0</tilted></feature>
            <threshold>5.5363662540912628e-02</threshold>
            <left_val>1.0440590093696420e-01</left_val>
            <right_val>-7.3861978178763477e-01</right_val></_></_>
        <_>
          <_>
            <feature>
              <rects>
                <_>
                  12 21 18 1 -1.</_>
                <_>
                  21 21 9 1 2.</_></rects>
              <tilted>0</tilted></feature>
            <threshold>-2.3523229174315929e-03</threshold>
            <left_val>-5.7406422497776322e-01</left_val>
            <right_val>8.6183054505624843e-02</right_val></_></_>
        <_>
          <_>
            <feature>
              <rects>
                <_>
                  16 26 3 12 -1.</_>
                <_>
                  16 30 3 4 3.</_></rects>
              <tilted>0</tilted></feature>
            <threshold>-2.1050211507827044e-03</threshold>
            <left_val>2.5339754649278073e-01</left_val>
            <right_val>-2.3038148111732978e-01</right_val></_></_>
        <_>
          <_>
            <feature>
              <rects>
                <_>
                  2 17 36 3 -1.</_>
                <_>
                  11 17 18 3 2.</_></rects>
              <tilted>0</tilted></feature>
            <threshold>-2.2330455482006073e-02</threshold>
            <left_val>6.8197792620649256e-01</left_val>
            <right_val>-1.2596399878110673e-01</right_val></_></_>
        <_>
          <_>
            <feature>
              <rects>
                <_>
                  24 12 8 9 -1.</_>
                <_>
                  28 12 4 9 2.</_></rects>
              <tilted>0</tilted></feature>
            <threshold>-2.7403132990002632e-03</threshold>
            <left_val>2.9022956613904910e-01</left_val>
            <right_val>-2.6780878660578222e-01</right_val></_></_>
        <_>
          <_>
            <feature>
              <rects>
                <_>
                  7 16 1 3 -1.</_>
                <_>
                  7 17 1 1 3.</_></rects>
              <tilted>0</tilted></feature>
            <threshold>-1.4614251267630607e-04</threshold>
            <left_val>-5.2263203873499220e-01</left_val>
            <right_val>1.2654912023030895e-01</right_val></_></_>
        <_>
          <_>
            <feature>
              <rects>
                <_>
                  27 7 7 6 -1.</_>
                <_>
                  25 9 7 2 3.</_></rects>
              <tilted>1</tilted></feature>
            <threshold>7.8001818619668484e-03</threshold>
            <left_val>-1.0747161485208533e-01</left_val>
            <right_val>5.7120601568142415e-01</right_val></_></_>
        <_>
          <_>
            <feature>
              <rects>
                <_>
                  21 14 18 4 -1.</_>
                <_>
                  21 14 9 2 2.</_>
                <_>
                  30 16 9 2 2.</_></rects>
              <tilted>0</tilted></feature>
            <threshold>-1.0727266781032085e-03</threshold>
            <left_val>2.7439547532019226e-01</left_val>
            <right_val>-2.4870232283457730e-01</right_val></_></_>
        <_>
          <_>
            <feature>
              <rects>
                <_>
                  19 30 3 1 -1.</_>
                <_>
                  20 30 1 1 3.</_></rects>
              <tilted>0</tilted></feature>
            <threshold>-1.4070188626646996e-04</threshold>
            <left_val>-6.3243331052357210e-01</left_val>
            <right_val>9.7546778028802031e-02</right_val></_></_>
        <_>
          <_>
            <feature>
              <rects>
                <_>
                  17 0 10 20 -1.</_>
                <_>
                  17 10 10 10 2.</_></rects>
              <tilted>0</tilted></feature>
            <threshold>-5.6933436542749405e-02</threshold>
            <left_val>4.5575770226357953e-01</left_val>
            <right_val>-1.4091075640586018e-01</right_val></_></_>
        <_>
          <_>
            <feature>
              <rects>
                <_>
                  1 24 38 16 -1.</_>
                <_>
                  1 32 38 8 2.</_></rects>
              <tilted>0</tilted></feature>
            <threshold>-9.8975419998168945e-02</threshold>
            <left_val>4.3851478135332544e-01</left_val>
            <right_val>-1.6273718804308418e-01</right_val></_></_>
        <_>
          <_>
            <feature>
              <rects>
                <_>
                  1 8 2 32 -1.</_>
                <_>
                  2 8 1 32 2.</_></rects>
              <tilted>0</tilted></feature>
            <threshold>-2.3887902498245239e-03</threshold>
            <left_val>4.2602574696601575e-01</left_val>
            <right_val>-1.6558717440622794e-01</right_val></_></_>
        <_>
          <_>
            <feature>
              <rects>
                <_>
                  0 17 15 18 -1.</_>
                <_>
                  5 17 5 18 3.</_></rects>
              <tilted>0</tilted></feature>
            <threshold>3.9162650704383850e-02</threshold>
            <left_val>-1.1449650450997680e-01</left_val>
            <right_val>5.5677509127442470e-01</right_val></_></_>
        <_>
          <_>
            <feature>
              <rects>
                <_>
                  9 18 9 9 -1.</_>
                <_>
                  6 21 9 3 3.</_></rects>
              <tilted>1</tilted></feature>
            <threshold>-4.5278845354914665e-03</threshold>
            <left_val>2.9706229184024951e-01</left_val>
            <right_val>-2.2598384291273171e-01</right_val></_></_>
        <_>
          <_>
            <feature>
              <rects>
                <_>
                  29 22 4 3 -1.</_>
                <_>
                  29 23 4 1 3.</_></rects>
              <tilted>0</tilted></feature>
            <threshold>-8.6058583110570908e-04</threshold>
            <left_val>-8.0123805538611370e-01</left_val>
            <right_val>6.7279975748128801e-02</right_val></_></_>
        <_>
          <_>
            <feature>
              <rects>
                <_>
                  16 19 6 3 -1.</_>
                <_>
                  18 20 2 1 9.</_></rects>
              <tilted>0</tilted></feature>
            <threshold>1.4787118416279554e-03</threshold>
            <left_val>-1.9910191976888275e-01</left_val>
            <right_val>3.4655714772254531e-01</right_val></_></_>
        <_>
          <_>
            <feature>
              <rects>
                <_>
                  16 10 5 3 -1.</_>
                <_>
                  15 11 5 1 3.</_></rects>
              <tilted>1</tilted></feature>
            <threshold>-1.2402369175106287e-03</threshold>
            <left_val>-6.3290977517977798e-01</left_val>
            <right_val>1.1213001273772959e-01</right_val></_></_>
        <_>
          <_>
            <feature>
              <rects>
                <_>
                  30 17 10 20 -1.</_>
                <_>
                  30 17 5 10 2.</_>
                <_>
                  35 27 5 10 2.</_></rects>
              <tilted>0</tilted></feature>
            <threshold>1.4293299056589603e-02</threshold>
            <left_val>-1.5450462815439528e-01</left_val>
            <right_val>3.6804646637492483e-01</right_val></_></_>
        <_>
          <_>
            <feature>
              <rects>
                <_>
                  32 25 8 5 -1.</_>
                <_>
                  34 27 4 5 2.</_></rects>
              <tilted>1</tilted></feature>
            <threshold>7.1901408955454826e-03</threshold>
            <left_val>-1.3375614955762874e-01</left_val>
            <right_val>5.0583247739072745e-01</right_val></_></_>
        <_>
          <_>
            <feature>
              <rects>
                <_>
                  24 16 11 3 -1.</_>
                <_>
                  24 17 11 1 3.</_></rects>
              <tilted>0</tilted></feature>
            <threshold>-1.1485072318464518e-03</threshold>
            <left_val>-6.0067134766232300e-01</left_val>
            <right_val>1.1416644988837393e-01</right_val></_></_>
        <_>
          <_>
            <feature>
              <rects>
                <_>
                  2 0 1 2 -1.</_>
                <_>
                  2 0 1 1 2.</_></rects>
              <tilted>1</tilted></feature>
            <threshold>-8.5210616816766560e-05</threshold>
            <left_val>-3.9274078184411626e-01</left_val>
            <right_val>1.6237196979713131e-01</right_val></_></_></trees>
      <stage_threshold>-7.9424721002578735e-01</stage_threshold>
      <parent>4</parent>
      <next>-1</next></_>
    <_>
      <trees>
        <_>
          <_>
            <feature>
              <rects>
                <_>
                  14 11 8 7 -1.</_>
                <_>
                  14 11 4 7 2.</_></rects>
              <tilted>1</tilted></feature>
            <threshold>-2.4463539011776447e-03</threshold>
            <left_val>5.0601092896175104e-01</left_val>
            <right_val>-9.1970802919709480e-02</right_val></_></_>
        <_>
          <_>
            <feature>
              <rects>
                <_>
                  0 7 6 31 -1.</_>
                <_>
                  3 7 3 31 2.</_></rects>
              <tilted>0</tilted></feature>
            <threshold>-2.6848562061786652e-02</threshold>
            <left_val>4.9220253854747109e-01</left_val>
            <right_val>-1.2442207622328770e-01</right_val></_></_>
        <_>
          <_>
            <feature>
              <rects>
                <_>
                  15 7 8 8 -1.</_>
                <_>
                  15 7 4 8 2.</_></rects>
              <tilted>1</tilted></feature>
            <threshold>4.6598248183727264e-02</threshold>
            <left_val>-6.8809514329443724e-02</left_val>
            <right_val>8.0091868330641036e-01</right_val></_></_>
        <_>
          <_>
            <feature>
              <rects>
                <_>
                  37 0 3 16 -1.</_>
                <_>
                  33 4 3 8 2.</_></rects>
              <tilted>1</tilted></feature>
            <threshold>-2.7930576354265213e-02</threshold>
            <left_val>5.2744814013525998e-01</left_val>
            <right_val>-9.5009538872895871e-02</right_val></_></_>
        <_>
          <_>
            <feature>
              <rects>
                <_>
                  0 11 4 16 -1.</_>
                <_>
                  2 11 2 16 2.</_></rects>
              <tilted>0</tilted></feature>
            <threshold>5.1458203233778477e-03</threshold>
            <left_val>-1.6749825594281914e-01</left_val>
            <right_val>4.4741423668528801e-01</right_val></_></_>
        <_>
          <_>
            <feature>
              <rects>
                <_>
                  26 4 11 12 -1.</_>
                <_>
                  23 7 11 6 2.</_></rects>
              <tilted>1</tilted></feature>
            <threshold>-1.5716902911663055e-02</threshold>
            <left_val>3.4986815101220303e-01</left_val>
            <right_val>-1.5302319917589752e-01</right_val></_></_>
        <_>
          <_>
            <feature>
              <rects>
                <_>
                  21 2 3 15 -1.</_>
                <_>
                  22 2 1 15 3.</_></rects>
              <tilted>0</tilted></feature>
            <threshold>-1.8570974934846163e-03</threshold>
            <left_val>-7.5677339940968980e-01</left_val>
            <right_val>7.4481311773107683e-02</right_val></_></_>
        <_>
          <_>
            <feature>
              <rects>
                <_>
                  31 4 9 27 -1.</_>
                <_>
                  34 4 3 27 3.</_></rects>
              <tilted>0</tilted></feature>
            <threshold>-1.0352193377912045e-02</threshold>
            <left_val>3.1888940063007531e-01</left_val>
            <right_val>-1.7737795553520311e-01</right_val></_></_>
        <_>
          <_>
            <feature>
              <rects>
                <_>
                  13 15 16 17 -1.</_>
                <_>
                  21 15 8 17 2.</_></rects>
              <tilted>0</tilted></feature>
            <threshold>-2.2770624607801437e-02</threshold>
            <left_val>-5.2607423779324314e-01</left_val>
            <right_val>1.0542970993551455e-01</right_val></_></_>
        <_>
          <_>
            <feature>
              <rects>
                <_>
                  11 4 28 8 -1.</_>
                <_>
                  18 11 14 8 2.</_></rects>
              <tilted>1</tilted></feature>
            <threshold>1.8565776944160461e-01</threshold>
            <left_val>-9.4720723066361548e-02</left_val>
            <right_val>6.6695886899571200e-01</right_val></_></_>
        <_>
          <_>
            <feature>
              <rects>
                <_>
                  23 12 8 9 -1.</_>
                <_>
                  23 12 4 9 2.</_></rects>
              <tilted>1</tilted></feature>
            <threshold>-1.9987083971500397e-02</threshold>
            <left_val>-5.8950092566099699e-01</left_val>
            <right_val>1.2704207568208570e-01</right_val></_></_>
        <_>
          <_>
            <feature>
              <rects>
                <_>
                  25 23 8 6 -1.</_>
                <_>
                  27 25 4 6 2.</_></rects>
              <tilted>1</tilted></feature>
            <threshold>-6.0906000435352325e-03</threshold>
            <left_val>3.6916513826073766e-01</left_val>
            <right_val>-1.8422167977490672e-01</right_val></_></_>
        <_>
          <_>
            <feature>
              <rects>
                <_>
                  20 13 10 9 -1.</_>
                <_>
                  20 13 5 9 2.</_></rects>
              <tilted>1</tilted></feature>
            <threshold>1.7228934913873672e-02</threshold>
            <left_val>1.0172821562801132e-01</left_val>
            <right_val>-5.2015922825361571e-01</right_val></_></_>
        <_>
          <_>
            <feature>
              <rects>
                <_>
                  20 0 15 12 -1.</_>
                <_>
                  20 6 15 6 2.</_></rects>
              <tilted>0</tilted></feature>
            <threshold>5.1440216600894928e-02</threshold>
            <left_val>-8.8623305113989165e-02</left_val>
            <right_val>7.1270227278344356e-01</right_val></_></_>
        <_>
          <_>
            <feature>
              <rects>
                <_>
                  10 0 12 7 -1.</_>
                <_>
                  14 4 4 7 3.</_></rects>
              <tilted>1</tilted></feature>
            <threshold>-5.7996682822704315e-02</threshold>
            <left_val>7.7323065988445450e-01</left_val>
            <right_val>-5.1239597888628516e-02</right_val></_></_>
        <_>
          <_>
            <feature>
              <rects>
                <_>
                  38 1 1 4 -1.</_>
                <_>
                  38 3 1 2 2.</_></rects>
              <tilted>0</tilted></feature>
            <threshold>1.7474102787673473e-04</threshold>
            <left_val>1.3464626902596133e-01</left_val>
            <right_val>-4.2958863529000957e-01</right_val></_></_>
        <_>
          <_>
            <feature>
              <rects>
                <_>
                  9 23 15 2 -1.</_>
                <_>
                  14 23 5 2 3.</_></rects>
              <tilted>0</tilted></feature>
            <threshold>1.5366240404546261e-03</threshold>
            <left_val>-1.8858465939651878e-01</left_val>
            <right_val>2.8688239951141709e-01</right_val></_></_>
        <_>
          <_>
            <feature>
              <rects>
                <_>
                  11 21 9 3 -1.</_>
                <_>
                  14 21 3 3 3.</_></rects>
              <tilted>0</tilted></feature>
            <threshold>-5.5714743211865425e-04</threshold>
            <left_val>2.9150961687450716e-01</left_val>
            <right_val>-2.0491082205788519e-01</right_val></_></_>
        <_>
          <_>
            <feature>
              <rects>
                <_>
                  1 38 11 2 -1.</_>
                <_>
                  1 39 11 1 2.</_></rects>
              <tilted>0</tilted></feature>
            <threshold>-1.9407346553634852e-04</threshold>
            <left_val>-3.0473297200441007e-01</left_val>
            <right_val>1.7392231645880782e-01</right_val></_></_>
        <_>
          <_>
            <feature>
              <rects>
                <_>
                  13 17 8 6 -1.</_>
                <_>
                  13 17 4 3 2.</_>
                <_>
                  17 20 4 3 2.</_></rects>
              <tilted>0</tilted></feature>
            <threshold>-1.0697843972593546e-03</threshold>
            <left_val>3.1024294485853959e-01</left_val>
            <right_val>-1.8050192967647183e-01</right_val></_></_>
        <_>
          <_>
            <feature>
              <rects>
                <_>
                  6 17 9 3 -1.</_>
                <_>
                  6 18 9 1 3.</_></rects>
              <tilted>0</tilted></feature>
            <threshold>-7.4229564052075148e-04</threshold>
            <left_val>-4.9414745540418992e-01</left_val>
            <right_val>1.2133298944673300e-01</right_val></_></_>
        <_>
          <_>
            <feature>
              <rects>
                <_>
                  4 26 8 4 -1.</_>
                <_>
                  3 27 8 2 2.</_></rects>
              <tilted>1</tilted></feature>
            <threshold>8.9736969675868750e-04</threshold>
            <left_val>-1.8582334630688066e-01</left_val>
            <right_val>3.2149836837565937e-01</right_val></_></_>
        <_>
          <_>
            <feature>
              <rects>
                <_>
                  27 10 8 4 -1.</_>
                <_>
                  29 12 4 4 2.</_></rects>
              <tilted>1</tilted></feature>
            <threshold>6.7485044710338116e-03</threshold>
            <left_val>9.1973904686289465e-02</left_val>
            <right_val>-5.9357100532393869e-01</right_val></_></_>
        <_>
          <_>
            <feature>
              <rects>
                <_>
                  16 21 9 12 -1.</_>
                <_>
                  16 25 9 4 3.</_></rects>
              <tilted>0</tilted></feature>
            <threshold>-2.6197478175163269e-02</threshold>
            <left_val>7.6544284055443101e-01</left_val>
            <right_val>-7.7903700016930380e-02</right_val></_></_>
        <_>
          <_>
            <feature>
              <rects>
                <_>
                  21 29 3 9 -1.</_>
                <_>
                  21 32 3 3 3.</_></rects>
              <tilted>0</tilted></feature>
            <threshold>-3.0433642677962780e-03</threshold>
            <left_val>3.7490020248393857e-01</left_val>
            <right_val>-1.4085580750054438e-01</right_val></_></_>
        <_>
          <_>
            <feature>
              <rects>
                <_>
                  4 32 24 8 -1.</_>
                <_>
                  4 32 12 4 2.</_>
                <_>
                  16 36 12 4 2.</_></rects>
              <tilted>0</tilted></feature>
            <threshold>-1.8410865217447281e-02</threshold>
            <left_val>5.5364460563627649e-01</left_val>
            <right_val>-1.1596659394678825e-01</right_val></_></_>
        <_>
          <_>
            <feature>
              <rects>
                <_>
                  7 23 8 3 -1.</_>
                <_>
                  7 24 8 1 3.</_></rects>
              <tilted>0</tilted></feature>
            <threshold>1.0312808444723487e-03</threshold>
            <left_val>9.8818686126158892e-02</left_val>
            <right_val>-6.4625614642203244e-01</right_val></_></_>
        <_>
          <_>
            <feature>
              <rects>
                <_>
                  27 15 4 2 -1.</_>
                <_>
                  27 15 4 1 2.</_></rects>
              <tilted>1</tilted></feature>
            <threshold>1.1025917483493686e-03</threshold>
            <left_val>-1.2514034397394122e-01</left_val>
            <right_val>5.6115712016041219e-01</right_val></_></_>
        <_>
          <_>
            <feature>
              <rects>
                <_>
                  20 11 16 8 -1.</_>
                <_>
                  20 11 8 4 2.</_>
                <_>
                  28 15 8 4 2.</_></rects>
              <tilted>0</tilted></feature>
            <threshold>-5.8216815814375877e-03</threshold>
            <left_val>3.1751621466548835e-01</left_val>
            <right_val>-1.6860395325103431e-01</right_val></_></_>
        <_>
          <_>
            <feature>
              <rects>
                <_>
                  0 1 1 6 -1.</_>
                <_>
                  0 4 1 3 2.</_></rects>
              <tilted>0</tilted></feature>
            <threshold>4.4580141548067331e-05</threshold>
            <left_val>1.7711366156349098e-01</left_val>
            <right_val>-3.2500342686299993e-01</right_val></_></_>
        <_>
          <_>
            <feature>
              <rects>
                <_>
                  14 8 9 9 -1.</_>
                <_>
                  11 11 9 3 3.</_></rects>
              <tilted>1</tilted></feature>
            <threshold>-1.8006540834903717e-02</threshold>
            <left_val>-6.0637578627967537e-01</left_val>
            <right_val>9.4975330189131235e-02</right_val></_></_>
        <_>
          <_>
            <feature>
              <rects>
                <_>
                  10 0 10 18 -1.</_>
                <_>
                  10 6 10 6 3.</_></rects>
              <tilted>0</tilted></feature>
            <threshold>5.4574340581893921e-02</threshold>
            <left_val>-8.7818198183478524e-02</left_val>
            <right_val>7.3314820400928382e-01</right_val></_></_>
        <_>
          <_>
            <feature>
              <rects>
                <_>
                  26 19 2 5 -1.</_>
                <_>
                  27 19 1 5 2.</_></rects>
              <tilted>0</tilted></feature>
            <threshold>-1.3169275189284235e-04</threshold>
            <left_val>2.5455380882660400e-01</left_val>
            <right_val>-2.0015681246913564e-01</right_val></_></_>
        <_>
          <_>
            <feature>
              <rects>
                <_>
                  19 4 4 17 -1.</_>
                <_>
                  20 4 2 17 2.</_></rects>
              <tilted>0</tilted></feature>
            <threshold>-3.1772865913808346e-03</threshold>
            <left_val>-8.7342143467608035e-01</left_val>
            <right_val>5.6622070531605125e-02</right_val></_></_>
        <_>
          <_>
            <feature>
              <rects>
                <_>
                  23 14 7 4 -1.</_>
                <_>
                  22 15 7 2 2.</_></rects>
              <tilted>1</tilted></feature>
            <threshold>-1.0631724726408720e-03</threshold>
            <left_val>4.0611722451100385e-01</left_val>
            <right_val>-1.3675990777390445e-01</right_val></_></_>
        <_>
          <_>
            <feature>
              <rects>
                <_>
                  10 7 9 3 -1.</_>
                <_>
                  13 8 3 1 9.</_></rects>
              <tilted>0</tilted></feature>
            <threshold>1.0419951751828194e-02</threshold>
            <left_val>7.0505877624976690e-02</left_val>
            <right_val>-8.7681151416289782e-01</right_val></_></_>
        <_>
          <_>
            <feature>
              <rects>
                <_>
                  35 9 2 2 -1.</_>
                <_>
                  35 10 2 1 2.</_></rects>
              <tilted>0</tilted></feature>
            <threshold>1.0596630454529077e-04</threshold>
            <left_val>1.0908219070493964e-01</left_val>
            <right_val>-4.3193407346859419e-01</right_val></_></_></trees>
      <stage_threshold>-1.0898785591125488e+00</stage_threshold>
      <parent>5</parent>
      <next>-1</next></_>
    <_>
      <trees>
        <_>
          <_>
            <feature>
              <rects>
                <_>
                  0 4 2 26 -1.</_>
                <_>
                  1 4 1 26 2.</_></rects>
              <tilted>0</tilted></feature>
            <threshold>-1.7358539626002312e-03</threshold>
            <left_val>5.7076205287714143e-01</left_val>
            <right_val>3.4482758620690258e-02</right_val></_></_>
        <_>
          <_>
            <feature>
              <rects>
                <_>
                  28 18 4 6 -1.</_>
                <_>
                  30 18 2 6 2.</_></rects>
              <tilted>0</tilted></feature>
            <threshold>-6.7342887632548809e-04</threshold>
            <left_val>2.8990696640962177e-01</left_val>
            <right_val>-2.4054602916336246e-01</right_val></_></_>
        <_>
          <_>
            <feature>
              <rects>
                <_>
                  30 13 3 1 -1.</_>
                <_>
                  31 14 1 1 3.</_></rects>
              <tilted>1</tilted></feature>
            <threshold>-6.1324681155383587e-04</threshold>
            <left_val>-6.7848798764729612e-01</left_val>
            <right_val>8.3745259827653407e-02</right_val></_></_>
        <_>
          <_>
            <feature>
              <rects>
                <_>
                  10 27 25 8 -1.</_>
                <_>
                  10 29 25 4 2.</_></rects>
              <tilted>0</tilted></feature>
            <threshold>-3.9694067090749741e-03</threshold>
            <left_val>2.4842278660588143e-01</left_val>
            <right_val>-2.2125510400204038e-01</right_val></_></_>
        <_>
          <_>
            <feature>
              <rects>
                <_>
                  22 0 8 1 -1.</_>
                <_>
                  26 0 4 1 2.</_></rects>
              <tilted>0</tilted></feature>
            <threshold>-2.2036791779100895e-04</threshold>
            <left_val>-3.6456760508062291e-01</left_val>
            <right_val>1.3058039022776044e-01</right_val></_></_>
        <_>
          <_>
            <feature>
              <rects>
                <_>
                  9 12 1 3 -1.</_>
                <_>
                  9 13 1 1 3.</_></rects>
              <tilted>0</tilted></feature>
            <threshold>-1.4964069123379886e-04</threshold>
            <left_val>-5.2528729865219270e-01</left_val>
            <right_val>1.3440724577060895e-01</right_val></_></_>
        <_>
          <_>
            <feature>
              <rects>
                <_>
                  26 10 9 5 -1.</_>
                <_>
                  29 13 3 5 3.</_></rects>
              <tilted>1</tilted></feature>
            <threshold>2.1954515948891640e-02</threshold>
            <left_val>5.7567071969553435e-02</left_val>
            <right_val>-7.6691545863530886e-01</right_val></_></_>
        <_>
          <_>
            <feature>
              <rects>
                <_>
                  12 15 8 2 -1.</_>
                <_>
                  12 15 4 1 2.</_>
                <_>
                  16 16 4 1 2.</_></rects>
              <tilted>0</tilted></feature>
            <threshold>1.8802480190061033e-04</threshold>
            <left_val>-2.0823371466740098e-01</left_val>
            <right_val>2.5360272436112441e-01</right_val></_></_>
        <_>
          <_>
            <feature>
              <rects>
                <_>
                  0 13 40 16 -1.</_>
                <_>
                  10 13 20 16 2.</_></rects>
              <tilted>0</tilted></feature>
            <threshold>2.2901560366153717e-01</threshold>
            <left_val>-1.0700481918789312e-01</left_val>
            <right_val>6.2173911428824991e-01</right_val></_></_>
        <_>
          <_>
            <feature>
              <rects>
                <_>
                  16 0 20 12 -1.</_>
                <_>
                  16 3 20 6 2.</_></rects>
              <tilted>0</tilted></feature>
            <threshold>-2.8208989650011063e-02</threshold>
            <left_val>4.5174685534653891e-01</left_val>
            <right_val>-1.1410520131221319e-01</right_val></_></_>
        <_>
          <_>
            <feature>
              <rects>
                <_>
                  14 24 4 12 -1.</_>
                <_>
                  11 27 4 6 2.</_></rects>
              <tilted>1</tilted></feature>
            <threshold>2.0903412252664566e-02</threshold>
            <left_val>-8.6055061909770261e-02</left_val>
            <right_val>6.4295281980987340e-01</right_val></_></_>
        <_>
          <_>
            <feature>
              <rects>
                <_>
                  13 1 6 13 -1.</_>
                <_>
                  13 1 3 13 2.</_></rects>
              <tilted>1</tilted></feature>
            <threshold>2.6304939761757851e-02</threshold>
            <left_val>-1.2831842509707592e-01</left_val>
            <right_val>4.1988924718148196e-01</right_val></_></_>
        <_>
          <_>
            <feature>
              <rects>
                <_>
                  13 0 4 13 -1.</_>
                <_>
                  13 0 2 13 2.</_></rects>
              <tilted>1</tilted></feature>
            <threshold>-1.1849961243569851e-02</threshold>
            <left_val>5.2358718383108749e-01</left_val>
            <right_val>-1.1060067846947015e-01</right_val></_></_>
        <_>
          <_>
            <feature>
              <rects>
                <_>
                  2 28 18 8 -1.</_>
                <_>
                  2 28 9 4 2.</_>
                <_>
                  11 32 9 4 2.</_></rects>
              <tilted>0</tilted></feature>
            <threshold>-8.7363962084054947e-03</threshold>
            <left_val>3.9811118792037797e-01</left_val>
            <right_val>-1.3852037723113553e-01</right_val></_></_>
        <_>
          <_>
            <feature>
              <rects>
                <_>
                  20 27 6 8 -1.</_>
                <_>
                  22 27 2 8 3.</_></rects>
              <tilted>0</tilted></feature>
            <threshold>-3.1233592890202999e-03</threshold>
            <left_val>-5.7872569579937050e-01</left_val>
            <right_val>9.2691734688217273e-02</right_val></_></_>
        <_>
          <_>
            <feature>
              <rects>
                <_>
                  30 14 9 6 -1.</_>
                <_>
                  30 14 9 3 2.</_></rects>
              <tilted>1</tilted></feature>
            <threshold>2.1450079977512360e-02</threshold>
            <left_val>-7.1244400773633809e-02</left_val>
            <right_val>7.8454429119465496e-01</right_val></_></_>
        <_>
          <_>
            <feature>
              <rects>
                <_>
                  38 2 2 30 -1.</_>
                <_>
                  39 2 1 30 2.</_></rects>
              <tilted>0</tilted></feature>
            <threshold>1.8991676624864340e-03</threshold>
            <left_val>-1.4414862043497995e-01</left_val>
            <right_val>3.8581602117344055e-01</right_val></_></_>
        <_>
          <_>
            <feature>
              <rects>
                <_>
                  2 36 2 2 -1.</_>
                <_>
                  2 36 2 1 2.</_></rects>
              <tilted>1</tilted></feature>
            <threshold>1.8849651678465307e-04</threshold>
            <left_val>1.4782051475258925e-01</left_val>
            <right_val>-3.4688358096752986e-01</right_val></_></_>
        <_>
          <_>
            <feature>
              <rects>
                <_>
                  16 20 4 3 -1.</_>
                <_>
                  17 20 2 3 2.</_></rects>
              <tilted>0</tilted></feature>
            <threshold>5.1988393533974886e-04</threshold>
            <left_val>-1.2395566505338244e-01</left_val>
            <right_val>4.6793317995107642e-01</right_val></_></_>
        <_>
          <_>
            <feature>
              <rects>
                <_>
                  36 10 1 2 -1.</_>
                <_>
                  36 11 1 1 2.</_></rects>
              <tilted>0</tilted></feature>
            <threshold>3.1214600312523544e-05</threshold>
            <left_val>1.5136453982387063e-01</left_val>
            <right_val>-3.5924036084468186e-01</right_val></_></_>
        <_>
          <_>
            <feature>
              <rects>
                <_>
                  7 12 8 3 -1.</_>
                <_>
                  7 13 8 1 3.</_></rects>
              <tilted>0</tilted></feature>
            <threshold>4.9548351671546698e-04</threshold>
            <left_val>1.1315644219919317e-01</left_val>
            <right_val>-4.5128289292047552e-01</right_val></_></_>
        <_>
          <_>
            <feature>
              <rects>
                <_>
                  18 20 9 3 -1.</_>
                <_>
                  21 21 3 1 9.</_></rects>
              <tilted>0</tilted></feature>
            <threshold>2.7684256201609969e-04</threshold>
            <left_val>-2.6282102251367606e-01</left_val>
            <right_val>2.0583969282011355e-01</right_val></_></_>
        <_>
          <_>
            <feature>
              <rects>
                <_>
                  16 18 7 9 -1.</_>
                <_>
                  16 21 7 3 3.</_></rects>
              <tilted>0</tilted></feature>
            <threshold>2.7130749003845267e-05</threshold>
            <left_val>2.0613271545348330e-01</left_val>
            <right_val>-2.6778844922651474e-01</right_val></_></_>
        <_>
          <_>
            <feature>
              <rects>
                <_>
                  13 20 27 2 -1.</_>
                <_>
                  13 21 27 1 2.</_></rects>
              <tilted>0</tilted></feature>
            <threshold>-2.1066390909254551e-03</threshold>
            <left_val>-5.3535914146983410e-01</left_val>
            <right_val>9.7131792160907685e-02</right_val></_></_>
        <_>
          <_>
            <feature>
              <rects>
                <_>
                  19 24 2 6 -1.</_>
                <_>
                  17 26 2 2 3.</_></rects>
              <tilted>1</tilted></feature>
            <threshold>-8.1646535545587540e-04</threshold>
            <left_val>2.7192420602176898e-01</left_val>
            <right_val>-1.9640024552913640e-01</right_val></_></_>
        <_>
          <_>
            <feature>
              <rects>
                <_>
                  24 9 2 12 -1.</_>
                <_>
                  24 9 2 6 2.</_></rects>
              <tilted>1</tilted></feature>
            <threshold>1.2086451053619385e-02</threshold>
            <left_val>9.1973299989447269e-02</left_val>
            <right_val>-6.3438105775872256e-01</right_val></_></_>
        <_>
          <_>
            <feature>
              <rects>
                <_>
                  14 5 20 6 -1.</_>
                <_>
                  14 5 10 3 2.</_>
                <_>
                  24 8 10 3 2.</_></rects>
              <tilted>0</tilted></feature>
            <threshold>-2.4025896564126015e-03</threshold>
            <left_val>2.9255698916388267e-01</left_val>
            <right_val>-2.0622801716978806e-01</right_val></_></_>
        <_>
          <_>
            <feature>
              <rects>
                <_>
                  9 27 3 1 -1.</_>
                <_>
                  10 28 1 1 3.</_></rects>
              <tilted>1</tilted></feature>
            <threshold>-3.5046326229348779e-04</threshold>
            <left_val>-4.7148277541713146e-01</left_val>
            <right_val>1.1653207353618408e-01</right_val></_></_>
        <_>
          <_>
            <feature>
              <rects>
                <_>
                  17 12 3 5 -1.</_>
                <_>
                  18 13 1 5 3.</_></rects>
              <tilted>1</tilted></feature>
            <threshold>1.8333239713683724e-03</threshold>
            <left_val>-9.7753457263019067e-02</left_val>
            <right_val>6.0019000594755789e-01</right_val></_></_>
        <_>
          <_>
            <feature>
              <rects>
                <_>
                  19 7 6 11 -1.</_>
                <_>
                  21 9 2 11 3.</_></rects>
              <tilted>1</tilted></feature>
            <threshold>-4.7854082658886909e-03</threshold>
            <left_val>3.1718782110114008e-01</left_val>
            <right_val>-2.1071491903908751e-01</right_val></_></_>
        <_>
          <_>
            <feature>
              <rects>
                <_>
                  9 20 2 3 -1.</_>
                <_>
                  9 21 2 1 3.</_></rects>
              <tilted>0</tilted></feature>
            <threshold>-3.9978086715564132e-04</threshold>
            <left_val>-6.5319254810479099e-01</left_val>
            <right_val>9.6930982695491025e-02</right_val></_></_>
        <_>
          <_>
            <feature>
              <rects>
                <_>
                  24 7 3 27 -1.</_>
                <_>
                  25 7 1 27 3.</_></rects>
              <tilted>0</tilted></feature>
            <threshold>-1.7303726635873318e-03</threshold>
            <left_val>-6.2431300507435050e-01</left_val>
            <right_val>7.3837955148482237e-02</right_val></_></_>
        <_>
          <_>
            <feature>
              <rects>
                <_>
                  0 4 4 24 -1.</_>
                <_>
                  0 4 2 12 2.</_>
                <_>
                  2 16 2 12 2.</_></rects>
              <tilted>0</tilted></feature>
            <threshold>5.3779184818267822e-03</threshold>
            <left_val>-1.4120650157433218e-01</left_val>
            <right_val>4.0559409985564987e-01</right_val></_></_>
        <_>
          <_>
            <feature>
              <rects>
                <_>
                  0 0 8 3 -1.</_>
                <_>
                  4 0 4 3 2.</_></rects>
              <tilted>0</tilted></feature>
            <threshold>-1.2033763341605663e-03</threshold>
            <left_val>-3.3891608344744278e-01</left_val>
            <right_val>1.7994968910122136e-01</right_val></_></_>
        <_>
          <_>
            <feature>
              <rects>
                <_>
                  27 7 10 14 -1.</_>
                <_>
                  27 7 5 7 2.</_>
                <_>
                  32 14 5 7 2.</_></rects>
              <tilted>0</tilted></feature>
            <threshold>1.5077821910381317e-02</threshold>
            <left_val>-7.4448816700109499e-02</left_val>
            <right_val>7.0638222493524783e-01</right_val></_></_></trees>
      <stage_threshold>-8.3533078432083130e-01</stage_threshold>
      <parent>6</parent>
      <next>-1</next></_>
    <_>
      <trees>
        <_>
          <_>
            <feature>
              <rects>
                <_>
                  13 0 21 15 -1.</_>
                <_>
                  13 5 21 5 3.</_></rects>
              <tilted>0</tilted></feature>
            <threshold>-3.6116957664489746e-02</threshold>
            <left_val>5.7027463651050392e-01</left_val>
            <right_val>4.7910295616718480e-02</right_val></_></_>
        <_>
          <_>
            <feature>
              <rects>
                <_>
                  8 12 16 6 -1.</_>
                <_>
                  8 12 8 3 2.</_>
                <_>
                  16 15 8 3 2.</_></rects>
              <tilted>0</tilted></feature>
            <threshold>1.3036461314186454e-03</threshold>
            <left_val>-2.7628741513712507e-01</left_val>
            <right_val>2.3491413606074862e-01</right_val></_></_>
        <_>
          <_>
            <feature>
              <rects>
                <_>
                  0 15 2 16 -1.</_>
                <_>
                  1 15 1 16 2.</_></rects>
              <tilted>0</tilted></feature>
            <threshold>-1.7198895802721381e-03</threshold>
            <left_val>3.9646866478244974e-01</left_val>
            <right_val>-1.5920358579586477e-01</right_val></_></_>
        <_>
          <_>
            <feature>
              <rects>
                <_>
                  22 0 14 12 -1.</_>
                <_>
                  22 6 14 6 2.</_></rects>
              <tilted>0</tilted></feature>
            <threshold>2.3287747055292130e-02</threshold>
            <left_val>-1.5317871598421831e-01</left_val>
            <right_val>4.7590927371352570e-01</right_val></_></_>
        <_>
          <_>
            <feature>
              <rects>
                <_>
                  26 24 8 16 -1.</_>
                <_>
                  26 24 4 8 2.</_>
                <_>
                  30 32 4 8 2.</_></rects>
              <tilted>0</tilted></feature>
            <threshold>4.3444307520985603e-03</threshold>
            <left_val>-1.3860299153343933e-01</left_val>
            <right_val>3.3859721529563408e-01</right_val></_></_>
        <_>
          <_>
            <feature>
              <rects>
                <_>
                  17 4 2 20 -1.</_>
                <_>
                  17 9 2 10 2.</_></rects>
              <tilted>0</tilted></feature>
            <threshold>-5.9230686165392399e-03</threshold>
            <left_val>3.6835868005289363e-01</left_val>
            <right_val>-1.8972269622443250e-01</right_val></_></_>
        <_>
          <_>
            <feature>
              <rects>
                <_>
                  36 1 2 1 -1.</_>
                <_>
                  37 1 1 1 2.</_></rects>
              <tilted>0</tilted></feature>
            <threshold>-5.3002248023403808e-05</threshold>
            <left_val>-4.2229912083119592e-01</left_val>
            <right_val>1.3603325802146399e-01</right_val></_></_>
        <_>
          <_>
            <feature>
              <rects>
                <_>
                  29 21 7 3 -1.</_>
                <_>
                  29 22 7 1 3.</_></rects>
              <tilted>0</tilted></feature>
            <threshold>5.1918393000960350e-04</threshold>
            <left_val>1.1370637338276726e-01</left_val>
            <right_val>-4.8127552263640205e-01</right_val></_></_>
        <_>
          <_>
            <feature>
              <rects>
                <_>
                  21 27 8 9 -1.</_>
                <_>
                  21 30 8 3 3.</_></rects>
              <tilted>0</tilted></feature>
            <threshold>-4.0284115821123123e-03</threshold>
            <left_val>2.7174210926590414e-01</left_val>
            <right_val>-1.9040320612879727e-01</right_val></_></_>
        <_>
          <_>
            <feature>
              <rects>
                <_>
                  23 14 6 10 -1.</_>
                <_>
                  23 14 6 5 2.</_></rects>
              <tilted>1</tilted></feature>
            <threshold>-7.2359703481197357e-03</threshold>
            <left_val>-4.2646150855938902e-01</left_val>
            <right_val>1.2798781202556439e-01</right_val></_></_>
        <_>
          <_>
            <feature>
              <rects>
                <_>
                  26 17 4 4 -1.</_>
                <_>
                  25 18 4 2 2.</_></rects>
              <tilted>1</tilted></feature>
            <threshold>-1.3555682962760329e-03</threshold>
            <left_val>4.4457155566039552e-01</left_val>
            <right_val>-1.4013097562088977e-01</right_val></_></_>
        <_>
          <_>
            <feature>
              <rects>
                <_>
                  6 0 15 6 -1.</_>
                <_>
                  11 5 5 6 3.</_></rects>
              <tilted>1</tilted></feature>
            <threshold>-3.8973279297351837e-02</threshold>
            <left_val>4.0235299593888080e-01</left_val>
            <right_val>-1.2942888798042851e-01</right_val></_></_>
        <_>
          <_>
            <feature>
              <rects>
                <_>
                  0 11 12 21 -1.</_>
                <_>
                  4 11 4 21 3.</_></rects>
              <tilted>0</tilted></feature>
            <threshold>1.9184768199920654e-02</threshold>
            <left_val>-1.3262815638049372e-01</left_val>
            <right_val>4.2268025725058561e-01</right_val></_></_>
        <_>
          <_>
            <feature>
              <rects>
                <_>
                  12 15 3 3 -1.</_>
                <_>
                  11 16 3 1 3.</_></rects>
              <tilted>1</tilted></feature>
            <threshold>-1.0473949369043112e-03</threshold>
            <left_val>-6.4979741791208412e-01</left_val>
            <right_val>1.0058327724432375e-01</right_val></_></_>
        <_>
          <_>
            <feature>
              <rects>
                <_>
                  18 26 5 6 -1.</_>
                <_>
                  18 28 5 2 3.</_></rects>
              <tilted>0</tilted></feature>
            <threshold>-3.5380506888031960e-03</threshold>
            <left_val>4.6060039000043534e-01</left_val>
            <right_val>-1.0971206032142333e-01</right_val></_></_>
        <_>
          <_>
            <feature>
              <rects>
                <_>
                  17 17 8 8 -1.</_>
                <_>
                  19 17 4 8 2.</_></rects>
              <tilted>0</tilted></feature>
            <threshold>-1.4785173698328435e-04</threshold>
            <left_val>2.5895495255453449e-01</left_val>
            <right_val>-1.8503715873599610e-01</right_val></_></_>
        <_>
          <_>
            <feature>
              <rects>
                <_>
                  29 24 6 3 -1.</_>
                <_>
                  29 25 6 1 3.</_></rects>
              <tilted>0</tilted></feature>
            <threshold>5.0420220941305161e-04</threshold>
            <left_val>1.1434757346224345e-01</left_val>
            <right_val>-4.8234289913995754e-01</right_val></_></_>
        <_>
          <_>
            <feature>
              <rects>
                <_>
                  0 13 40 17 -1.</_>
                <_>
                  10 13 20 17 2.</_></rects>
              <tilted>0</tilted></feature>
            <threshold>2.8340241312980652e-01</threshold>
            <left_val>-8.9582512978990114e-02</left_val>
            <right_val>6.3989270719779079e-01</right_val></_></_>
        <_>
          <_>
            <feature>
              <rects>
                <_>
                  27 11 10 4 -1.</_>
                <_>
                  27 11 5 4 2.</_></rects>
              <tilted>1</tilted></feature>
            <threshold>2.6246726512908936e-02</threshold>
            <left_val>8.1386242115894944e-02</left_val>
            <right_val>-7.8577193988964023e-01</right_val></_></_>
        <_>
          <_>
            <feature>
              <rects>
                <_>
                  19 11 4 5 -1.</_>
                <_>
                  20 12 2 5 2.</_></rects>
              <tilted>1</tilted></feature>
            <threshold>-2.2890884429216385e-03</threshold>
            <left_val>4.1951477301704421e-01</left_val>
            <right_val>-1.3237656674020271e-01</right_val></_></_>
        <_>
          <_>
            <feature>
              <rects>
                <_>
                  34 27 6 5 -1.</_>
                <_>
                  36 29 2 5 3.</_></rects>
              <tilted>1</tilted></feature>
            <threshold>-4.5053195208311081e-03</threshold>
            <left_val>3.7014016049689630e-01</left_val>
            <right_val>-1.4140156268861917e-01</right_val></_></_>
        <_>
          <_>
            <feature>
              <rects>
                <_>
                  2 3 2 2 -1.</_>
                <_>
                  2 3 1 2 2.</_></rects>
              <tilted>1</tilted></feature>
            <threshold>-4.3676083441823721e-04</threshold>
            <left_val>-4.3659690790210054e-01</left_val>
            <right_val>1.3330612801810851e-01</right_val></_></_>
        <_>
          <_>
            <feature>
              <rects>
                <_>
                  9 1 30 8 -1.</_>
                <_>
                  9 1 15 4 2.</_>
                <_>
                  24 5 15 4 2.</_></rects>
              <tilted>0</tilted></feature>
            <threshold>-8.9261047542095184e-03</threshold>
            <left_val>2.8681400608902330e-01</left_val>
            <right_val>-1.8255529587694067e-01</right_val></_></_>
        <_>
          <_>
            <feature>
              <rects>
                <_>
                  27 9 7 4 -1.</_>
                <_>
                  26 10 7 2 2.</_></rects>
              <tilted>1</tilted></feature>
            <threshold>-4.1003176011145115e-03</threshold>
            <left_val>5.8516564132880700e-01</left_val>
            <right_val>-7.6731061951067950e-02</right_val></_></_>
        <_>
          <_>
            <feature>
              <rects>
                <_>
                  35 20 3 3 -1.</_>
                <_>
                  35 21 3 1 3.</_></rects>
              <tilted>0</tilted></feature>
            <threshold>1.8000931595452130e-04</threshold>
            <left_val>1.2965886821104397e-01</left_val>
            <right_val>-4.3039624522963227e-01</right_val></_></_>
        <_>
          <_>
            <feature>
              <rects>
                <_>
                  30 7 7 4 -1.</_>
                <_>
                  29 8 7 2 2.</_></rects>
              <tilted>1</tilted></feature>
            <threshold>-2.1707180421799421e-03</threshold>
            <left_val>3.7974600983717238e-01</left_val>
            <right_val>-1.3330499005797292e-01</right_val></_></_>
        <_>
          <_>
            <feature>
              <rects>
                <_>
                  25 3 3 6 -1.</_>
                <_>
                  26 3 1 6 3.</_></rects>
              <tilted>0</tilted></feature>
            <threshold>-4.2711704736575484e-04</threshold>
            <left_val>-4.4503891659591777e-01</left_val>
            <right_val>1.2326260243742675e-01</right_val></_></_>
        <_>
          <_>
            <feature>
              <rects>
                <_>
                  36 7 4 31 -1.</_>
                <_>
                  38 7 2 31 2.</_></rects>
              <tilted>0</tilted></feature>
            <threshold>-9.4208251684904099e-03</threshold>
            <left_val>5.2412007680211103e-01</left_val>
            <right_val>-8.7158515766257966e-02</right_val></_></_>
        <_>
          <_>
            <feature>
              <rects>
                <_>
                  38 35 2 5 -1.</_>
                <_>
                  39 35 1 5 2.</_></rects>
              <tilted>0</tilted></feature>
            <threshold>-1.6411437536589801e-04</threshold>
            <left_val>-4.1033131394757461e-01</left_val>
            <right_val>1.2551680300588730e-01</right_val></_></_>
        <_>
          <_>
            <feature>
              <rects>
                <_>
                  0 4 15 36 -1.</_>
                <_>
                  5 16 5 12 9.</_></rects>
              <tilted>0</tilted></feature>
            <threshold>-2.2714357078075409e-01</threshold>
            <left_val>4.3981628235097170e-01</left_val>
            <right_val>-1.0842995564322033e-01</right_val></_></_>
        <_>
          <_>
            <feature>
              <rects>
                <_>
                  28 25 2 8 -1.</_>
                <_>
                  28 25 1 4 2.</_>
                <_>
                  29 29 1 4 2.</_></rects>
              <tilted>0</tilted></feature>
            <threshold>5.4340111091732979e-04</threshold>
            <left_val>-1.2654553953111769e-01</left_val>
            <right_val>4.1295292536231087e-01</right_val></_></_>
        <_>
          <_>
            <feature>
              <rects>
                <_>
                  28 17 6 10 -1.</_>
                <_>
                  30 19 2 10 3.</_></rects>
              <tilted>1</tilted></feature>
            <threshold>-5.2764452993869781e-03</threshold>
            <left_val>4.5920005249169399e-01</left_val>
            <right_val>-1.0200624898492812e-01</right_val></_></_>
        <_>
          <_>
            <feature>
