<?xml version="1.0"?>
<opencv_storage>
<cascade>
  <stageType>BOOST</stageType>
  <featureType>LBP</featureType>
  <height>40</height>
  <width>40</width>
  <stageParams>
    <boostType>GAB</boostType>
    <minHitRate>9.9900001287460327e-01</minHitRate>
    <maxFalseAlarm>5.0000000000000000e-01</maxFalseAlarm>
    <weightTrimRate>9.4999999999999996e-01</weightTrimRate>
    <maxDepth>1</maxDepth>
    <maxWeakCount>100</maxWeakCount></stageParams>
  <featureParams>
    <maxCatCount>256</maxCatCount>
    <featSize>1</featSize></featureParams>
  <stageNum>20</stageNum>
  <stages>
    <!-- stage 0 -->
    <_>
      <maxWeakCount>3</maxWeakCount>
      <stageThreshold>-6.5923875570297241e-01</stageThreshold>
      <weakClassifiers>
        <_>
          <internalNodes>
            0 -1 95 -671118324 2147339807 1862110957 -771786753
            -285310964 -27321316 -2030729570 -572522497</internalNodes>
          <leafValues>
            -6.2974685430526733e-01 8.2438015937805176e-01</leafValues></_>
        <_>
          <internalNodes>
            0 -1 74 -251320529 -636775625 -662156020 -1372420080
            1350779183 -2065367029 -2013246961 1480779787</internalNodes>
          <leafValues>
            -6.9990456104278564e-01 7.1794289350509644e-01</leafValues></_>
        <_>
          <internalNodes>
            0 -1 68 -1151892480 948441252 67175455 -318668783 -796884854
            -1862106752 -1987901269 -100926481</internalNodes>
          <leafValues>
            -6.8392336368560791e-01 6.7041260004043579e-01</leafValues></_></weakClassifiers></_>
    <!-- stage 1 -->
    <_>
      <maxWeakCount>5</maxWeakCount>
      <stageThreshold>-7.9806178808212280e-01</stageThreshold>
      <weakClassifiers>
        <_>
          <internalNodes>
            0 -1 92 -8393984 -1286619391 -4242923 -679510155 -12544
            -1627062459 -1075839089 -284164961</internalNodes>
          <leafValues>
            -6.6131907701492310e-01 7.4205964803695679e-01</leafValues></_>
        <_>
          <internalNodes>
            0 -1 49 1810164960 -269701268 -277024907 -11278854
            -866857844 -3870884 -168230948 -6554113</internalNodes>
          <leafValues>
            -6.2910342216491699e-01 6.9073688983917236e-01</leafValues></_>
        <_>
          <internalNodes>
            0 -1 76 1987967263 293746987 -1342144496 542277891
            1985192063 1460243495 1757972879 1686669898</internalNodes>
          <leafValues>
            -6.7261093854904175e-01 6.4960956573486328e-01</leafValues></_>
        <_>
          <internalNodes>
            0 -1 89 -1852780070 -1744781295 285278618 1431503001
            -1879013208 -1308622200 -1426027894 453050785</internalNodes>
          <leafValues>
            -7.2461378574371338e-01 5.6179034709930420e-01</leafValues></_>
        <_>
          <internalNodes>
            0 -1 60 -1340350984 -1324773120 83886488 -549351424
            -670906116 -1207951352 545816713 2114454529</internalNodes>
          <leafValues>
            -7.1665900945663452e-01 6.2013214826583862e-01</leafValues></_></weakClassifiers></_>
    <!-- stage 2 -->
    <_>
      <maxWeakCount>5</maxWeakCount>
      <stageThreshold>-8.6156737804412842e-01</stageThreshold>
      <weakClassifiers>
        <_>
          <internalNodes>
            0 -1 109 -72421884 -146 -1347761171 -1644167169 -10641400
            2132778245 -1422037075 -8388645</internalNodes>
          <leafValues>
            -5.7071548700332642e-01 7.4374371767044067e-01</leafValues></_>
        <_>
          <internalNodes>
            0 -1 44 -346585716 18875649 1090589013 1374947340
            -1056865398 -1941436415 -259932022 1532430347</internalNodes>
          <leafValues>
            -7.9490673542022705e-01 5.3964442014694214e-01</leafValues></_>
        <_>
          <internalNodes>
            0 -1 62 -1978408822 -1857025892 -1450769395 -418675681
            -1845454666 -801177404 713032603 1536944567</internalNodes>
          <leafValues>
            -7.8757172822952271e-01 4.9964708089828491e-01</leafValues></_>
        <_>
          <internalNodes>
            0 -1 48 -263851524 -1325313936 -1610596212 -774701045
            805347744 -1072643960 -1727919922 2092155019</internalNodes>
          <leafValues>
            -6.5766942501068115e-01 6.5746301412582397e-01</leafValues></_>
        <_>
          <internalNodes>
            0 -1 17 -1324096593 282411187 -804251639 -2138756736
            607129733 537502133 -1456305151 -1587303673</internalNodes>
          <leafValues>
            -6.4768385887145996e-01 6.3483679294586182e-01</leafValues></_></weakClassifiers></_>
    <!-- stage 3 -->
    <_>
      <maxWeakCount>5</maxWeakCount>
      <stageThreshold>-8.0286967754364014e-01</stageThreshold>
      <weakClassifiers>
        <_>
          <internalNodes>
            0 -1 102 -15092 -36929 285695807 -201895525 -25195508
            2098175821 -1493771092 -1048705</internalNodes>
          <leafValues>
            -5.8523726463317871e-01 7.1096020936965942e-01</leafValues></_>
        <_>
          <internalNodes>
            0 -1 90 1480851239 -1033837787 1116856403 -1060978683
            525419390 -300839364 -489494418 2103553903</internalNodes>
          <leafValues>
            -5.9347301721572876e-01 6.3808727264404297e-01</leafValues></_>
        <_>
          <internalNodes>
            0 -1 71 -267324035 -1108315535 352849245 -787906107
            -1811354436 -125790015 159916008 186647825</internalNodes>
          <leafValues>
            -6.6454827785491943e-01 5.9349036216735840e-01</leafValues></_>
        <_>
          <internalNodes>
            0 -1 83 1094909406 1371640987 1360011290 352501890
            1233816297 1083080835 572565640 923752158</internalNodes>
          <leafValues>
            -7.5560134649276733e-01 4.7832369804382324e-01</leafValues></_>
        <_>
          <internalNodes>
            0 -1 27 -1580752017 16910404 4435 -1168801792 30249661
            -2062909425 -381386112 -1413099324</internalNodes>
          <leafValues>
            -6.6949510574340820e-01 5.6685960292816162e-01</leafValues></_></weakClassifiers></_>
    <!-- stage 4 -->
    <_>
      <maxWeakCount>4</maxWeakCount>
      <stageThreshold>-1.7983179539442062e-02</stageThreshold>
      <weakClassifiers>
        <_>
          <internalNodes>
            0 -1 79 -2113536 -585302780 2147430429 1607448383 -4211267
            -1170162748 -1077936225 -1610620961</internalNodes>
          <leafValues>
            -5.1644736528396606e-01 7.1975809335708618e-01</leafValues></_>
        <_>
          <internalNodes>
            0 -1 64 2014834735 -263470033 -1851719145 -2042935253
            -2007080913 -66617023 -394252214 -30087390</internalNodes>
          <leafValues>
            -5.4810559749603271e-01 6.7525833845138550e-01</leafValues></_>
        <_>
          <internalNodes>
            0 -1 88 -914242777 373346561 285283768 397607202 1076388011
            21088328 -904332870 1938025883</internalNodes>
          <leafValues>
            -6.3588911294937134e-01 5.7785427570343018e-01</leafValues></_>
        <_>
          <internalNodes>
            0 -1 86 -1198905328 -1873739696 -2063462115 1560760373
            -2112845390 -1198915440 -1996485496 141170949</internalNodes>
          <leafValues>
            -7.5464838743209839e-01 4.7393301129341125e-01</leafValues></_></weakClassifiers></_>
    <!-- stage 5 -->
    <_>
      <maxWeakCount>7</maxWeakCount>
      <stageThreshold>-8.7457942962646484e-01</stageThreshold>
      <weakClassifiers>
        <_>
          <internalNodes>
            0 -1 103 -83890652 -2107643 -318865667 -33558393 -1367365628
            -10646260 -2010076498 -1082134529</internalNodes>
          <leafValues>
            -5.6169426441192627e-01 6.6698199510574341e-01</leafValues></_>
        <_>
          <internalNodes>
            0 -1 43 -1950617685 251838243 -2097153 -345047057 -71571061
            -41663164 -1139030121 -414236769</internalNodes>
          <leafValues>
            -5.1856040954589844e-01 6.5255361795425415e-01</leafValues></_>
        <_>
          <internalNodes>
            0 -1 52 -514472628 -988397548 1561409884 -577683316
            -234839816 -95412096 -1207402024 1058150616</internalNodes>
          <leafValues>
            -6.8533241748809814e-01 4.9194353818893433e-01</leafValues></_>
        <_>
          <internalNodes>
            0 -1 47 -804650868 -550928383 687931679 -1456010752 41963660
            1493204993 -1995798502 -385181681</internalNodes>
          <leafValues>
            -6.3328284025192261e-01 5.3444421291351318e-01</leafValues></_>
        <_>
          <internalNodes>
            0 -1 112 -788011009 1879164955 -251641794 -2134867706
            -2143223532 -1441791999 -502726102 838090783</internalNodes>
          <leafValues>
            -6.7841374874114990e-01 5.0831186771392822e-01</leafValues></_>
        <_>
          <internalNodes>
            0 -1 33 -774453361 -267324255 -1559162685 -577743735
            -934772603 1773814449 -1609496575 -184547051</internalNodes>
          <leafValues>
            -5.8401268720626831e-01 5.9427982568740845e-01</leafValues></_>
        <_>
          <internalNodes>
            0 -1 58 -1547135524 -646950728 -1727000297 -676003456
            -1870610192 282067152 1325432971 1025525929</internalNodes>
          <leafValues>
            -7.8696238994598389e-01 4.8100069165229797e-01</leafValues></_></weakClassifiers></_>
    <!-- stage 6 -->
    <_>
      <maxWeakCount>6</maxWeakCount>
      <stageThreshold>-5.1659452915191650e-01</stageThreshold>
      <weakClassifiers>
        <_>
          <internalNodes>
            0 -1 107 -216334309 -217380449 142606418 1142620806
            1229655050 2030206992 1073815579 1913645979</internalNodes>
          <leafValues>
            -6.7901235818862915e-01 5.6485354900360107e-01</leafValues></_>
        <_>
          <internalNodes>
            0 -1 36 -2012742689 -1912273530 -1610526695 -1383219188
            814207655 -905805811 547426576 -821298811</internalNodes>
          <leafValues>
            -6.0675865411758423e-01 5.3902864456176758e-01</leafValues></_>
        <_>
          <internalNodes>
            0 -1 45 -178851410 218957327 -1338436466 152764427
            -1467948626 -1207906160 2001308043 2134585379</internalNodes>
          <leafValues>
            -6.4231139421463013e-01 4.8831555247306824e-01</leafValues></_>
        <_>
          <internalNodes>
            0 -1 96 -1027095282 1480818688 -2147364787 1344151578
            1078042884 -1064755200 -1061107457 -850425394</internalNodes>
          <leafValues>
            -6.3769608736038208e-01 5.3263944387435913e-01</leafValues></_>
        <_>
          <internalNodes>
            0 -1 85 453005556 -40107883 -1861217508 1496514837
            -1937735496 -1198997367 -2013230086 773328905</internalNodes>
          <leafValues>
            -7.0594525337219238e-01 4.3927755951881409e-01</leafValues></_>
        <_>
          <internalNodes>
            0 -1 50 1627611458 1162088456 1098973238 520405768
            -536735252 -670564223 2124589198 -1732530037</internalNodes>
          <leafValues>
            -6.6650778055191040e-01 5.0898343324661255e-01</leafValues></_></weakClassifiers></_>
    <!-- stage 7 -->
    <_>
      <maxWeakCount>8</maxWeakCount>
      <stageThreshold>-1.1350405216217041e+00</stageThreshold>
      <weakClassifiers>
        <_>
          <internalNodes>
            0 -1 55 -1288503389 -486503456 -341133313 -411910285
            -88547442 -1023090876 859013119 -12067617</internalNodes>
          <leafValues>
            -4.0683230757713318e-01 6.9246864318847656e-01</leafValues></_>
        <_>
          <internalNodes>
            0 -1 91 -787134709 18448815 1235308821 1344047117 -796884161
            -2105507679 -485938849 328909659</internalNodes>
          <leafValues>
            -6.8325209617614746e-01 4.9834230542182922e-01</leafValues></_>
        <_>
          <internalNodes>
            0 -1 46 -1048134776 -1051934546 17862657 -1993915642
            -1589581687 -896909310 1359061377 -908111706</internalNodes>
          <leafValues>
            -6.6642624139785767e-01 4.6187439560890198e-01</leafValues></_>
        <_>
          <internalNodes>
            0 -1 119 -1964000433 149864361 503054335 -121803333
            -1109442697 -973291524 -1755564043 -269914269</internalNodes>
          <leafValues>
            -5.1874858140945435e-01 6.1332440376281738e-01</leafValues></_>
        <_>
          <internalNodes>
            0 -1 100 1896870659 1359028291 17 1611661323 1208101634
            1107476481 1616988345 1915476911</internalNodes>
          <leafValues>
            -6.4745098352432251e-01 4.7770816087722778e-01</leafValues></_>
        <_>
          <internalNodes>
            0 -1 20 -269526277 -1075923406 -268501313 -2088574975
            -1074922502 -1884442025 353164184 -821613211</internalNodes>
          <leafValues>
            -4.8100700974464417e-01 7.1586179733276367e-01</leafValues></_>
        <_>
          <internalNodes>
            0 -1 56 -471424720 -1056292221 -2080088063 -685920249
            -1607982612 -875397045 -1337822060 -917540114</internalNodes>
          <leafValues>
            -5.8909797668457031e-01 5.4243117570877075e-01</leafValues></_>
        <_>
          <internalNodes>
            0 -1 14 813651555 -600588418 520060829 -92540948 2080234916
            -1107460170 -1778484211 -871565539</internalNodes>
          <leafValues>
            -5.0135612487792969e-01 6.6119641065597534e-01</leafValues></_></weakClassifiers></_>
    <!-- stage 8 -->
    <_>
      <maxWeakCount>7</maxWeakCount>
      <stageThreshold>-6.7975008487701416e-01</stageThreshold>
      <weakClassifiers>
        <_>
          <internalNodes>
            0 -1 37 -272633972 223219141 -33596075 1071451213 -538972241
            -1345892467 -413174410 -270196913</internalNodes>
          <leafValues>
            -4.7522935271263123e-01 6.2464457750320435e-01</leafValues></_>
        <_>
          <internalNodes>
            0 -1 104 270017692 -716144573 1266733537 -1119780776
            545827804 -758603068 -1415574598 728367409</internalNodes>
          <leafValues>
            -5.8179450035095215e-01 5.1401442289352417e-01</leafValues></_>
        <_>
          <internalNodes>
            0 -1 67 -872297469 -657338100 201868661 -662005753 25225519
            495550761 -1476351537 1309444675</internalNodes>
          <leafValues>
            -7.1659630537033081e-01 4.3951356410980225e-01</leafValues></_>
        <_>
          <internalNodes>
            0 -1 80 -245701502 -1067433976 1627455505 -520011776
            -2146566013 -872415231 -2122080245 -507006257</internalNodes>
          <leafValues>
            -5.8384811878204346e-01 5.7114070653915405e-01</leafValues></_>
        <_>
          <internalNodes>
            0 -1 2 -1571581233 1249378437 -800795765 -1144975207
            415943311 1099433985 1377938370 -138559439</internalNodes>
          <leafValues>
            -5.6105589866638184e-01 5.8306461572647095e-01</leafValues></_>
        <_>
          <internalNodes>
            0 -1 94 -762724212 -775847931 67190894 -1048083261
            1342349468 -2136932160 629781130 -1460940081</internalNodes>
          <leafValues>
            -6.0681122541427612e-01 5.1678669452667236e-01</leafValues></_>
        <_>
          <internalNodes>
            0 -1 22 -2136025725 1620571871 -528692 -442176825
            -1653080924 -1392513729 -840634709 -1230057915</internalNodes>
          <leafValues>
            -5.2200698852539062e-01 6.5252935886383057e-01</leafValues></_></weakClassifiers></_>
    <!-- stage 9 -->
    <_>
      <maxWeakCount>6</maxWeakCount>
      <stageThreshold>-1.1735541820526123e+00</stageThreshold>
      <weakClassifiers>
        <_>
          <internalNodes>
            0 -1 78 -1409307230 -1614836187 1648323191 662658495
            -1887727702 -79700050 532666047 -539369475</internalNodes>
          <leafValues>
            -4.7197106480598450e-01 6.3132762908935547e-01</leafValues></_>
        <_>
          <internalNodes>
            0 -1 115 -489168096 272826501 1811 1610743886 1476657160
            -1439825920 -1472027869 1782712859</internalNodes>
          <leafValues>
            -6.7298364639282227e-01 4.6303001046180725e-01</leafValues></_>
        <_>
          <internalNodes>
            0 -1 63 -170263620 1897469972 1082251280 18154064 -653672196
            134228484 1227587755 -105181973</internalNodes>
          <leafValues>
            -5.7611334323883057e-01 5.1843047142028809e-01</leafValues></_>
        <_>
          <internalNodes>
            0 -1 0 543420405 -67244067 1585102335 229635813 267841535
            -755580971 -671631368 -1223678016</internalNodes>
          <leafValues>
            -5.0066357851028442e-01 6.4806824922561646e-01</leafValues></_>
        <_>
          <internalNodes>
            0 -1 13 -1364295843 492466174 -1880150443 218238584
            1610610636 -17336451 191803119 -1923394279</internalNodes>
          <leafValues>
            -5.0635182857513428e-01 6.1986738443374634e-01</leafValues></_>
        <_>
          <internalNodes>
            0 -1 75 1012093219 -654192326 -796589928 -732377079 1051199
            810647801 -796912805 1686960425</internalNodes>
          <leafValues>
            -7.4288451671600342e-01 4.5998549461364746e-01</leafValues></_></weakClassifiers></_>
    <!-- stage 10 -->
    <_>
      <maxWeakCount>7</maxWeakCount>
      <stageThreshold>-8.5998058319091797e-01</stageThreshold>
      <weakClassifiers>
        <_>
          <internalNodes>
            0 -1 15 -151326790 264957950 -1073743840 -268467978
            -134283304 1342070783 -319376912 128690170</internalNodes>
          <leafValues>
            -5.4887217283248901e-01 6.4794009923934937e-01</leafValues></_>
        <_>
          <internalNodes>
            0 -1 99 -1364041776 -1661407248 2144173982 1499658224
            -1481114228 -537591819 1068478350 -1157898851</internalNodes>
          <leafValues>
            -4.4291517138481140e-01 6.5447819232940674e-01</leafValues></_>
        <_>
          <internalNodes>
            0 -1 42 1128891304 1199604866 1360069022 -177405941
            1209600394 -385826302 164118656 -542955461</internalNodes>
          <leafValues>
            -6.1820924282073975e-01 5.0951409339904785e-01</leafValues></_>
        <_>
          <internalNodes>
            0 -1 8 341038356 5589396 -1862251259 -2084463103 840240319
            -1601174378 -344768312 48279225</internalNodes>
          <leafValues>
            -5.8308660984039307e-01 5.4074937105178833e-01</leafValues></_>
        <_>
          <internalNodes>
            0 -1 97 1439950892 -805120895 335749271 1493651490
            -1023236984 1107595264 -1576033602 -463603205</internalNodes>
          <leafValues>
            -6.6149723529815674e-01 4.5627304911613464e-01</leafValues></_>
        <_>
          <internalNodes>
            0 -1 77 1073795631 285544509 276824100 -1036745664
            1359057019 814843960 -1467965349 11505745</internalNodes>
          <leafValues>
            -7.8285783529281616e-01 4.6138337254524231e-01</leafValues></_>
        <_>
          <internalNodes>
            0 -1 3 -2147397537 -771747838 8392972 421203973 -2004840280
            -1340079744 269159936 2107981857</internalNodes>
          <leafValues>
            -5.9187185764312744e-01 5.8076333999633789e-01</leafValues></_></weakClassifiers></_>
    <!-- stage 11 -->
    <_>
      <maxWeakCount>7</maxWeakCount>
      <stageThreshold>-3.7933039665222168e-01</stageThreshold>
      <weakClassifiers>
        <_>
          <internalNodes>
            0 -1 28 990642107 -821035025 -1346371597 -1416626178
            2059140027 1266547699 855799697 -343408865</internalNodes>
          <leafValues>
            -3.5092347860336304e-01 7.9097384214401245e-01</leafValues></_>
        <_>
          <internalNodes>
            0 -1 113 16971964 1473249885 -2130665316 -2130589659
            -1844965340 1614840068 -1572330824 562763403</internalNodes>
          <leafValues>
            -5.9045267105102539e-01 5.2453142404556274e-01</leafValues></_>
        <_>
          <internalNodes>
            0 -1 35 622183413 629281040 -1585077985 -1524004862 49663
            2090909745 1820427401 -391195648</internalNodes>
          <leafValues>
            -5.1600402593612671e-01 5.5631923675537109e-01</leafValues></_>
        <_>
          <internalNodes>
            0 -1 53 -2143280769 319881280 1158681051 1493205777
            -1467441150 -1650917360 570512318 191037444</internalNodes>
          <leafValues>
            -5.6008636951446533e-01 5.5012238025665283e-01</leafValues></_>
        <_>
          <internalNodes>
            0 -1 21 -123251258 -163611307 2113929117 -583063636
            2013236420 -671089234 -268834417 -276394748</internalNodes>
          <leafValues>
            -4.6056222915649414e-01 7.2110015153884888e-01</leafValues></_>
        <_>
          <internalNodes>
            0 -1 120 1617084859 -2147249789 272630912 1813827593
            1074634755 -939390944 1208559941 2084039555</internalNodes>
          <leafValues>
            -6.2390971183776855e-01 5.4142785072326660e-01</leafValues></_>
        <_>
          <internalNodes>
            0 -1 29 -1052622388 -1689640556 -721348321 -537062117
            -2138434597 -1253557736 155238574 -325875573</internalNodes>
          <leafValues>
            -5.7490801811218262e-01 6.0205924510955811e-01</leafValues></_></weakClassifiers></_>
    <!-- stage 12 -->
    <_>
      <maxWeakCount>8</maxWeakCount>
      <stageThreshold>-1.2181048393249512e+00</stageThreshold>
      <weakClassifiers>
        <_>
          <internalNodes>
            0 -1 24 -2037407785 755874287 -1938030608 -2036793324
            771227619 1302331383 106376528 -2041610172</internalNodes>
          <leafValues>
            -6.0238569974899292e-01 6.4083862304687500e-01</leafValues></_>
        <_>
          <internalNodes>
            0 -1 25 1360026078 -179077048 -1877539367 -33847088
            -1341123616 -192931696 35684490 -96862070</internalNodes>
          <leafValues>
            -5.7135641574859619e-01 5.6112283468246460e-01</leafValues></_>
        <_>
          <internalNodes>
            0 -1 93 -413604882 1443090820 8400904 1354760328 1608746122
            2030059650 1744938894 1686240011</internalNodes>
          <leafValues>
            -6.0064059495925903e-01 5.1972150802612305e-01</leafValues></_>
        <_>
          <internalNodes>
            0 -1 106 -143702843 930578417 2138756913 1475818867
            2075813861 369065834 -483217152 2008196587</internalNodes>
          <leafValues>
            -5.1063990592956543e-01 6.6025513410568237e-01</leafValues></_>
        <_>
          <internalNodes>
            0 -1 7 -159465537 179322873 2130690033 146538428 1971175286
            -1476593793 889011444 -1382711566</internalNodes>
          <leafValues>
            -5.1759105920791626e-01 6.4338535070419312e-01</leafValues></_>
        <_>
          <internalNodes>
            0 -1 23 1913775234 -1858060129 16801812 -1995845494
            614835556 -1575370602 -1521376210 1947330892</internalNodes>
          <leafValues>
            -7.1069502830505371e-01 5.1063352823257446e-01</leafValues></_>
        <_>
          <internalNodes>
            0 -1 32 -1878888304 1887457371 268456713 -854048640 194704
            -1308589911 -2013233013 -1098708598</internalNodes>
          <leafValues>
            -5.4211944341659546e-01 6.2530410289764404e-01</leafValues></_>
        <_>
          <internalNodes>
            0 -1 6 -715852346 1830342731 43100 570728462 286265604
            -1937760128 -1277751037 673751686</internalNodes>
          <leafValues>
            -6.8234503269195557e-01 5.4606610536575317e-01</leafValues></_></weakClassifiers></_>
    <!-- stage 13 -->
    <_>
      <maxWeakCount>6</maxWeakCount>
      <stageThreshold>-1.4323137998580933e+00</stageThreshold>
      <weakClassifiers>
        <_>
          <internalNodes>
            0 -1 81 -1431658334 -246680727 1628446940 88074239
            -958161781 -137429027 1946099182 -135531009</internalNodes>
          <leafValues>
            -5.3612166643142700e-01 6.3500928878784180e-01</leafValues></_>
        <_>
          <internalNodes>
            0 -1 38 -246918692 -780213419 -1728047236 2133803084
            -939470718 -234864171 302646704 2047477784</internalNodes>
          <leafValues>
            -6.9483804702758789e-01 4.7400838136672974e-01</leafValues></_>
        <_>
          <internalNodes>
            0 -1 101 1174528895 953664247 -2147475454 -2013233148
            -1476392889 -121102249 -2097117152 -268992433</internalNodes>
          <leafValues>
            -5.7056397199630737e-01 5.6294697523117065e-01</leafValues></_>
        <_>
          <internalNodes>
            0 -1 105 1052 1900020816 65565 1394606208 -1610571588
            -127139776 -1904080198 302907395</internalNodes>
          <leafValues>
            -6.5991246700286865e-01 5.6729191541671753e-01</leafValues></_>
        <_>
          <internalNodes>
            0 -1 57 -660549380 2030113347 75759753 -1929182973
            -2147444583 721485906 -1978414578 1597980681</internalNodes>
          <leafValues>
            -6.6360872983932495e-01 4.8171368241310120e-01</leafValues></_>
        <_>
          <internalNodes>
            0 -1 4 1426542975 -1811152622 453188867 738333074
            -1610532491 689444993 -1040174574 -1205931773</internalNodes>
          <leafValues>
            -6.4724636077880859e-01 5.1836502552032471e-01</leafValues></_></weakClassifiers></_>
    <!-- stage 14 -->
    <_>
      <maxWeakCount>5</maxWeakCount>
      <stageThreshold>-6.0713559389114380e-01</stageThreshold>
      <weakClassifiers>
        <_>
          <internalNodes>
            0 -1 69 -2004161878 -1226329346 1642848503 2013265919
            1137329130 -302165138 58195391 -280021027</internalNodes>
          <leafValues>
            -5.4919499158859253e-01 6.7915463447570801e-01</leafValues></_>
        <_>
          <internalNodes>
            0 -1 39 -1200199254 -556007909 -1114965 -340984018
            -1837138254 -423987289 1370945223 -535300331</internalNodes>
          <leafValues>
            -5.3349626064300537e-01 6.1854529380798340e-01</leafValues></_>
        <_>
          <internalNodes>
            0 -1 89 -737127536 1896874184 302551130 -1727299327
            402659548 -105889663 -1157452870 1060700609</internalNodes>
          <leafValues>
            -6.8339097499847412e-01 5.2410238981246948e-01</leafValues></_>
        <_>
          <internalNodes>
            0 -1 84 -716144194 323158420 1544553664 1301611793
            -1065320271 268435544 293996938 488579215</internalNodes>
          <leafValues>
            -6.9282561540603638e-01 4.9027401208877563e-01</leafValues></_>
        <_>
          <internalNodes>
            0 -1 54 -215751709 -486070622 -411043910 -412746141
            -757542969 -535798208 173045743 -169345441</internalNodes>
          <leafValues>
            -4.8336893320083618e-01 7.1173942089080811e-01</leafValues></_></weakClassifiers></_>
    <!-- stage 15 -->
    <_>
      <maxWeakCount>5</maxWeakCount>
      <stageThreshold>-9.0783572196960449e-01</stageThreshold>
      <weakClassifiers>
        <_>
          <internalNodes>
            0 -1 66 179082 16851456 102401 386245249 168042633
            -2146828160 275075 403390497</internalNodes>
          <leafValues>
            -8.1917810440063477e-01 5.6599187850952148e-01</leafValues></_>
        <_>
          <internalNodes>
            0 -1 72 2126680 -737148816 1358954900 1140850689 33416
            -55017288 33557128 -1977384797</internalNodes>
          <leafValues>
            -5.7621645927429199e-01 5.9625732898712158e-01</leafValues></_>
        <_>
          <internalNodes>
            0 -1 30 -1853823908 1561317760 -2080292837 520421390
            -2013252974 -1694333952 -2139061745 -256180197</internalNodes>
          <leafValues>
            -5.9741151332855225e-01 5.7602417469024658e-01</leafValues></_>
        <_>
          <internalNodes>
            0 -1 98 1276420208 302268418 274 -1651474160 -2142601062
            1073741952 -2013164888 1023217955</internalNodes>
          <leafValues>
            -7.0014494657516479e-01 5.0738435983657837e-01</leafValues></_>
        <_>
          <internalNodes>
            0 -1 51 -1057128285 -972287997 555794448 -208535507 524298
            -1465773440 -2147319584 -174153398</internalNodes>
          <leafValues>
            -5.9488779306411743e-01 5.8565336465835571e-01</leafValues></_></weakClassifiers></_>
    <!-- stage 16 -->
    <_>
      <maxWeakCount>7</maxWeakCount>
      <stageThreshold>-5.1959282159805298e-01</stageThreshold>
      <weakClassifiers>
        <_>
          <internalNodes>
            0 -1 19 -890569026 -1980895825 -1059094810 -931135492
            1845476688 1342164991 -925176368 -1966481569</internalNodes>
          <leafValues>
            -5.2727270126342773e-01 6.5714287757873535e-01</leafValues></_>
        <_>
          <internalNodes>
            0 -1 1 41959650 -1831272318 -65335900 -303365888 -1602194693
            -156565375 -1409284633 1162233157</internalNodes>
          <leafValues>
            -5.7116377353668213e-01 5.7353037595748901e-01</leafValues></_>
        <_>
          <internalNodes>
            0 -1 61 -1591213990 -151040420 1341063163 2068717566
            -1120270324 -1092723586 -1100349445 -1166598660</internalNodes>
          <leafValues>
            -5.2907186746597290e-01 6.4783686399459839e-01</leafValues></_>
        <_>
          <internalNodes>
            0 -1 16 1617878111 -201277358 1342390791 -930447247
            -800414096 1116241924 -972445669 1366520253</internalNodes>
          <leafValues>
            -5.9088701009750366e-01 5.8900105953216553e-01</leafValues></_>
        <_>
          <internalNodes>
            0 -1 111 -478152708 -16814148 -134742022 1903681534
            -168065736 1064591100 645732222 -277479810</internalNodes>
          <leafValues>
            -5.7863295078277588e-01 6.0555809736251831e-01</leafValues></_>
        <_>
          <internalNodes>
            0 -1 41 1342698235 1094779297 1116178438 95158277 1343254699
            -679378784 -936856790 1243156512</internalNodes>
          <leafValues>
            -5.7076394557952881e-01 6.2029451131820679e-01</leafValues></_>
        <_>
          <internalNodes>
            0 -1 5 -1072566105 1912897767 823857611 -1257123712
            1901169135 4231201 -1039612790 547651968</internalNodes>
          <leafValues>
            -6.4977592229843140e-01 5.2659654617309570e-01</leafValues></_></weakClassifiers></_>
    <!-- stage 17 -->
    <_>
      <maxWeakCount>7</maxWeakCount>
      <stageThreshold>-5.3362411260604858e-01</stageThreshold>
      <weakClassifiers>
        <_>
          <internalNodes>
            0 -1 108 -269654008 -285212673 -285221121 -8404994
            -285258740 -8389249 -1359151476 -319105025</internalNodes>
          <leafValues>
            -4.8294433951377869e-01 6.4141899347305298e-01</leafValues></_>
        <_>
          <internalNodes>
            0 -1 40 -1833176167 -852963243 1050962 -1417412576
            -1115132487 29360264 -1509834541 2080344219</internalNodes>
          <leafValues>
            -5.5794489383697510e-01 5.1393747329711914e-01</leafValues></_>
        <_>
          <internalNodes>
            0 -1 117 -276836280 2063589205 2080373367 2054643711
            -21773816 -33027 1396678270 -298724837</internalNodes>
          <leafValues>
            -4.5184147357940674e-01 6.4150238037109375e-01</leafValues></_>
        <_>
          <internalNodes>
            0 -1 70 -1381085 -450320478 -17041409 -1325244190 -620757057
            -855572690 -687867905 -545263645</internalNodes>
          <leafValues>
            -4.9230271577835083e-01 6.0194158554077148e-01</leafValues></_>
        <_>
          <internalNodes>
            0 -1 12 -50859217 1996062655 1879043711 -319488001
            2012687696 -1125056516 2122278000 891727550</internalNodes>
          <leafValues>
            -5.6331676244735718e-01 5.7657599449157715e-01</leafValues></_>
        <_>
          <internalNodes>
            0 -1 9 -795487748 281280532 279184676 335742998 -2122274567
            -1677557759 -1945593639 470484997</internalNodes>
          <leafValues>
            -6.1210608482360840e-01 5.3020679950714111e-01</leafValues></_>
        <_>
          <internalNodes>
            0 -1 65 -1825316053 -1831731150 -2088238823 -2121162738
            1073807992 864256753 -786347967 2020031051</internalNodes>
          <leafValues>
            -6.3263839483261108e-01 4.8406308889389038e-01</leafValues></_></weakClassifiers></_>
    <!-- stage 18 -->
    <_>
      <maxWeakCount>7</maxWeakCount>
      <stageThreshold>-1.5725480318069458e+00</stageThreshold>
      <weakClassifiers>
        <_>
          <internalNodes>
            0 -1 31 -18683138 -34640020 -30941457 2049952868 1517345010
            -94309000 1119014139 -122468200</internalNodes>
          <leafValues>
            -3.8580247759819031e-01 6.8277311325073242e-01</leafValues></_>
        <_>
          <internalNodes>
            0 -1 34 -97031518 1661922991 -4458820 -541196488 -2064177735
            964163389 -999092851 -443484843</internalNodes>
          <leafValues>
            -4.7304216027259827e-01 6.3129842281341553e-01</leafValues></_>
        <_>
          <internalNodes>
            0 -1 114 546341140 1360347457 69663 -1651933165 268673464
            -236846847 -1314386776 831201690</internalNodes>
          <leafValues>
            -5.4913085699081421e-01 5.3607380390167236e-01</leafValues></_>
        <_>
          <internalNodes>
            0 -1 73 -1427293125 1991581664 2055208511 -1337983875
            706772592 -26116795 -1156522005 -270969347</internalNodes>
          <leafValues>
            -4.0704950690269470e-01 7.1569412946701050e-01</leafValues></_>
        <_>
          <internalNodes>
            0 -1 82 1506252026 1360593032 151542602 1107525834 12600641
            339795973 218333711 377208896</internalNodes>
          <leafValues>
            -6.9688403606414795e-01 4.2856422066688538e-01</leafValues></_>
        <_>
          <internalNodes>
            0 -1 59 -1042677492 -981463040 285245750 1370689920 103064
            8519936 -1593819104 -240482170</internalNodes>
          <leafValues>
            -6.2334144115447998e-01 5.0936067104339600e-01</leafValues></_>
        <_>
          <internalNodes>
            0 -1 118 -775634927 12878337 -1543471035 268501070
            -1878939628 -1879048184 -528236124 1624371482</internalNodes>
          <leafValues>
            -6.9544786214828491e-01 4.6709594130516052e-01</leafValues></_></weakClassifiers></_>
    <!-- stage 19 -->
    <_>
      <maxWeakCount>7</maxWeakCount>
      <stageThreshold>-7.6994615793228149e-01</stageThreshold>
      <weakClassifiers>
        <_>
          <internalNodes>
            0 -1 110 -286063364 -41089 1342194175 1913077803 -428098022
            -8405153 -432900177 2054418619</internalNodes>
          <leafValues>
            -5.1587301492691040e-01 6.0218977928161621e-01</leafValues></_>
        <_>
          <internalNodes>
            0 -1 87 -1873465304 -919230464 17896333 -937868791 4228522
            -1744806750 -1790918520 -113076141</internalNodes>
          <leafValues>
            -6.1709624528884888e-01 4.8092010617256165e-01</leafValues></_>
        <_>
          <internalNodes>
            0 -1 10 273974439 -1873342459 -266214503 1621156384
            1412464671 1214485551 -1476337643 -1576875339</internalNodes>
          <leafValues>
            -5.1704305410385132e-01 5.3577733039855957e-01</leafValues></_>
        <_>
          <internalNodes>
            0 -1 11 38990751 1480868624 -2147474967 105971720 1359052836
            -57507813 -298770422 5220868</internalNodes>
          <leafValues>
            -6.0048544406890869e-01 4.7910794615745544e-01</leafValues></_>
        <_>
          <internalNodes>
            0 -1 116 -401620192 1212227655 34327 811655298 -402620160
            -402653172 -536663486 -1217943186</internalNodes>
          <leafValues>
            -5.7390737533569336e-01 4.8239451646804810e-01</leafValues></_>
        <_>
          <internalNodes>
            0 -1 26 -805252011 353394897 -719249263 -1322577911
            1132470441 -1199439821 -620575958 767688973</internalNodes>
          <leafValues>
            -5.9111779928207397e-01 5.3922700881958008e-01</leafValues></_>
        <_>
          <internalNodes>
            0 -1 18 -1429134190 -1072689066 -2130698102 -1853050453
            -116267389 1619820561 -1291560288 -108952957</internalNodes>
          <leafValues>
            -5.6156182289123535e-01 5.4350507259368896e-01</leafValues></_></weakClassifiers></_></stages>
  <features>
    <_>
      <rect>
        0 0 6 3</rect></_>
    <_>
      <rect>
        0 0 13 6</rect></_>
    <_>
      <rect>
        0 1 4 4</rect></_>
    <_>
      <rect>
        0 22 8 5</rect></_>
    <_>
      <rect>
        0 28 5 3</rect></_>
    <_>
      <rect>
        1 0 13 11</rect></_>
    <_>
      <rect>
        1 6 4 6</rect></_>
    <_>
      <rect>
        1 17 5 7</rect></_>
    <_>
      <rect>
        2 6 6 6</rect></_>
    <_>
      <rect>
        2 22 8 5</rect></_>
    <_>
      <rect>
        3 3 10 7</rect></_>
    <_>
      <rect>
        3 17 3 4</rect></_>
    <_>
      <rect>
        4 8 2 4</rect></_>
    <_>
      <rect>
        4 27 10 4</rect></_>
    <_>
      <rect>
        5 1 10 4</rect></_>
    <_>
      <rect>
        5 14 5 6</rect></_>
    <_>
      <rect>
        5 19 2 3</rect></_>
    <_>
      <rect>
        7 3 9 7</rect></_>
    <_>
      <rect>
        7 9 7 6</rect></_>
    <_>
      <rect>
        7 14 4 6</rect></_>
    <_>
      <rect>
        7 30 8 2</rect></_>
    <_>
      <rect>
        8 0 10 7</rect></_>
    <_>
      <rect>
        8 2 8 5</rect></_>
    <_>
      <rect>
        8 4 10 9</rect></_>
    <_>
      <rect>
        8 5 5 8</rect></_>
    <_>
      <rect>
        8 22 7 4</rect></_>
    <_>
      <rect>
        9 0 8 6</rect></_>
    <_>
      <rect>
        9 1 5 11</rect></_>
    <_>
      <rect>
        9 13 4 4</rect></_>
    <_>
      <rect>
        9 21 5 3</rect></_>
    <_>
      <rect>
        9 22 6 4</rect></_>
    <_>
      <rect>
        9 24 6 3</rect></_>
    <_>
      <rect>
        9 29 3 2</rect></_>
    <_>
      <rect>
        10 4 8 6</rect></_>
    <_>
      <rect>
        10 6 9 6</rect></_>
    <_>
      <rect>
        10 8 5 4</rect></_>
    <_>
      <rect>
        10 10 4 4</rect></_>
    <_>
      <rect>
        10 17 4 4</rect></_>
    <_>
      <rect>
        10 25 5 3</rect></_>
    <_>
      <rect>
        11 10 8 4</rect></_>
    <_>
      <rect>
        11 14 3 3</rect></_>
    <_>
      <rect>
        11 17 5 4</rect></_>
    <_>
      <rect>
        11 21 3 3</rect></_>
    <_>
      <rect>
        12 14 3 4</rect></_>
    <_>
      <rect>
        12 17 3 4</rect></_>
    <_>
      <rect>
        12 17 4 4</rect></_>
    <_>
      <rect>
        12 18 2 5</rect></_>
    <_>
      <rect>
        12 21 4 3</rect></_>
    <_>
      <rect>
        12 21 4 4</rect></_>
    <_>
      <rect>
        12 22 3 3</rect></_>
    <_>
      <rect>
        12 24 3 2</rect></_>
    <_>
      <rect>
        12 25 1 1</rect></_>
    <_>
      <rect>
        12 26 3 2</rect></_>
    <_>
      <rect>
        12 30 6 2</rect></_>
    <_>
      <rect>
        13 14 3 4</rect></_>
    <_>
      <rect>
        13 15 3 3</rect></_>
    <_>
      <rect>
        13 19 2 4</rect></_>
    <_>
      <rect>
        13 19 5 4</rect></_>
    <_>
      <rect>
        13 22 5 4</rect></_>
    <_>
      <rect>
        13 25 1 1</rect></_>
    <_>
      <rect>
        13 25 4 3</rect></_>
    <_>
      <rect>
        13 30 2 1</rect></_>
    <_>
      <rect>
        14 13 4 3</rect></_>
    <_>
      <rect>
        14 21 3 4</rect></_>
    <_>
      <rect>
        15 4 7 9</rect></_>
    <_>
      <rect>
        15 5 5 5</rect></_>
    <_>
      <rect>
        15 10 2 4</rect></_>
    <_>
      <rect>
        15 11 7 6</rect></_>
    <_>
      <rect>
        15 12 4 3</rect></_>
    <_>
      <rect>
        15 13 3 3</rect></_>
    <_>
      <rect>
        15 16 2 3</rect></_>
    <_>
      <rect>
        15 26 4 3</rect></_>
    <_>
      <rect>
        15 27 7 2</rect></_>
    <_>
      <rect>
        15 29 3 1</rect></_>
    <_>
      <rect>
        16 7 6 5</rect></_>
    <_>
      <rect>
        16 8 6 6</rect></_>
    <_>
      <rect>
        16 9 7 7</rect></_>
    <_>
      <rect>
        16 10 5 3</rect></_>
    <_>
      <rect>
        16 13 3 2</rect></_>
    <_>
      <rect>
        16 14 4 3</rect></_>
    <_>
      <rect>
        16 15 2 3</rect></_>
    <_>
      <rect>
        16 15 3 2</rect></_>
    <_>
      <rect>
        16 16 3 4</rect></_>
    <_>
      <rect>
        16 17 3 4</rect></_>
    <_>
      <rect>
        16 19 3 3</rect></_>
    <_>
      <rect>
        16 28 4 2</rect></_>
    <_>
      <rect>
        16 31 3 2</rect></_>
    <_>
      <rect>
        17 12 3 3</rect></_>
    <_>
      <rect>
        17 22 3 2</rect></_>
    <_>
      <rect>
        17 27 4 2</rect></_>
    <_>
      <rect>
        18 10 6 7</rect></_>
    <_>
      <rect>
        18 11 4 3</rect></_>
    <_>
      <rect>
        18 15 3 2</rect></_>
    <_>
      <rect>
        18 16 2 3</rect></_>
    <_>
      <rect>
        19 19 3 3</rect></_>
    <_>
      <rect>
        20 15 2 3</rect></_>
    <_>
      <rect>
        20 15 3 6</rect></_>
    <_>
      <rect>
        20 16 2 3</rect></_>
    <_>
      <rect>
        20 21 2 3</rect></_>
    <_>
      <rect>
        20 29 3 1</rect></_>
    <_>
      <rect>
        21 11 2 3</rect></_>
    <_>
      <rect>
        21 11 5 6</rect></_>
    <_>
      <rect>
        21 17 2 2</rect></_>
    <_>
      <rect>
        21 17 2 3</rect></_>
    <_>
      <rect>
        21 29 3 2</rect></_>
    <_>
      <rect>
        21 32 3 2</rect></_>
    <_>
      <rect>
        22 3 6 6</rect></_>
    <_>
      <rect>
        22 15 2 3</rect></_>
    <_>
      <rect>
        22 18 1 1</rect></_>
    <_>
      <rect>
        22 19 2 3</rect></_>
    <_>
      <rect>
        24 17 1 3</rect></_>
    <_>
      <rect>
        24 18 2 6</rect></_>
    <_>
      <rect>
        24 20 4 5</rect></_>
    <_>
      <rect>
        24 27 2 2</rect></_>
    <_>
      <rect>
        25 31 2 2</rect></_>
    <_>
      <rect>
        26 20 2 4</rect></_>
    <_>
      <rect>
        26 21 2 4</rect></_>
    <_>
      <rect>
        27 20 1 3</rect></_>
    <_>
      <rect>
        28 5 4 8</rect></_>
    <_>
      <rect>
        34 22 2 6</rect></_>
    <_>
      <rect>
        34 25 2 3</rect></_></features></cascade>
</opencv_storage>
